1202 100
33489248 0.080969 0.079664 0.0063021 0.00077838 0.048317 0.027984 -0.033285 0.015784 0.1141 0.016885 0.044095 0.18505 0.10349 0.067276 -0.054248 0.068399 0.022985 0.025049 -0.051832 -0.15616 0.13582 -0.14108 0.23693 -0.087237 0.063715 -0.03841 0.11048 0.027821 -0.20689 0.20883 0.057919 0.045379 0.046995 -0.10099 -0.029084 -0.085692 0.04575 0.0080425 -0.035064 -0.034502 -0.093162 0.068421 -0.014818 0.050349 0.14998 -0.069764 0.10227 -0.035478 -0.051479 -0.16772 -0.04756 -0.10226 -0.13481 -0.05446 0.047698 -0.11722 -0.013519 0.025744 -0.10329 0.097737 -0.013119 0.11546 -0.078433 0.065367 0.037176 0.060202 0.0031081 -0.080088 0.13174 -0.12198 -0.096156 -0.070679 0.013333 -0.050827 -0.050452 -0.029856 0.15719 -0.067073 -0.079272 -0.0065917 -0.23596 -0.036666 0.12162 0.10165 0.022202 0.071927 0.14615 0.033997 -0.020799 -0.089717 -0.029129 -0.11053 0.05822 -0.06203 -0.0043134 -0.095892 -0.10369 0.10953 -0.093069 -0.0041504 
33489281 0.11887 0.11561 0.049859 -0.040437 0.067892 0.039437 -0.02871 0.10888 0.14977 0.0056772 0.067337 0.19869 0.065491 -0.0038113 0.020515 0.10353 -0.0018162 0.10228 -0.074919 -0.16273 0.12153 -0.084374 0.27499 -0.075654 0.069634 -0.027278 0.10517 0.049218 -0.18875 0.14029 0.053844 0.076871 -0.018436 0.0037236 -0.017649 -0.12474 0.10787 0.026245 -0.056344 0.010255 -0.10603 0.15108 0.027104 0.056082 0.16603 -0.063314 0.053632 -0.09365 -0.016446 -0.16503 -0.11537 -0.14043 -0.091026 -0.02194 -0.019006 -0.17462 0.0024074 0.028558 -0.054412 0.10912 -0.065353 0.19137 -0.043612 0.18331 0.012608 0.078063 -0.0076363 -0.092193 0.12081 -0.026796 -0.10086 -0.066587 0.0058062 -0.059513 -0.11591 -0.071295 0.11607 -0.091507 -0.07632 -0.0074101 -0.30021 -0.02563 0.063508 0.076946 -0.020759 -0.038373 0.1045 0.027262 0.0046725 -0.076745 0.030713 -0.11122 -0.024483 -0.038195 0.047954 -0.085816 -0.12553 0.06059 -0.065009 -0.055387 
41787264 0.088175 0.06305 -0.23122 0.085865 0.06171 0.11492 -0.15892 0.14842 0.22254 0.027034 -0.010261 0.14505 0.069658 0.010267 0.037425 0.064325 -0.14212 0.034351 -0.057307 -0.031068 0.09385 -0.044167 0.12971 -0.045962 -0.0013454 -0.067592 0.063671 0.0038408 -0.12163 0.066093 0.17611 -0.11952 -0.029375 0.10979 0.017734 -0.15434 0.045007 0.053846 0.011253 -0.042963 -0.033434 0.098128 -0.0087231 0.056616 0.16268 -0.00045777 0.088451 0.12254 -0.098061 0.005051 -0.090976 -0.017481 0.013926 0.072405 0.00089291 -0.083278 0.10701 0.040653 -0.10245 0.1386 0.039292 0.05316 -0.011023 0.060274 0.10431 -0.02491 0.097787 -0.028892 0.060683 0.13039 -0.18917 0.16108 -0.019251 -0.074063 0.020004 -0.030431 0.078242 0.025899 -0.087405 0.0049513 -0.11696 -0.070021 0.0854 0.030247 0.16009 -0.12289 0.0077947 -0.015496 -0.11433 -0.11018 -0.022152 -0.066297 0.025071 -0.067981 -0.071747 -0.14743 -0.038969 0.036138 -0.020573 0.061576 
33489283 0.067957 -0.0081688 0.075776 -0.073202 0.050952 0.047009 -0.062183 0.078057 0.072571 0.043933 -0.011329 0.183 0.0088718 0.059247 -0.074524 0.038367 -0.064197 -0.0050367 -0.0098703 -0.14838 0.14172 -0.13003 0.27668 -0.10426 -0.0053843 0.032168 0.12224 0.10418 -0.2347 0.18754 -0.011737 0.036269 -0.003437 -0.038291 -0.0029247 -0.17757 0.10073 0.063127 -0.027642 0.010559 -0.14666 0.01731 -0.034974 -0.022261 0.20971 -0.020198 0.085382 -0.047786 -0.0505 -0.12056 -0.059895 -0.074843 -0.097718 -0.075118 0.047567 -0.27865 -0.0031624 0.050037 0.031911 0.057418 0.0050336 0.093571 -0.11577 0.027025 -0.067141 0.12293 0.049237 0.018484 0.15274 -0.124 -0.044764 0.028467 0.0040737 0.0014518 -0.080615 -0.099548 0.21649 -0.099716 -0.020243 -0.094387 -0.26782 -0.033786 0.069653 0.16092 -0.056317 -0.076983 0.08264 -0.032669 -0.041429 -0.093369 -0.0041386 -0.17583 -0.023196 -0.030472 0.039972 0.018192 -0.016671 0.12406 0.036621 -0.062912 
30161031 0.11247 0.036463 -0.025438 0.07696 0.12188 0.046943 -0.020834 0.2098 0.17234 -0.01884 0.00017896 0.23616 0.037429 0.071743 0.066205 0.067589 -0.0412 0.031869 0.027697 0.043548 0.080034 -0.098437 0.17312 -0.12182 0.07688 -0.084246 0.17558 0.038518 -0.083275 -0.026544 -0.01014 0.054956 0.028814 0.0048355 -0.016943 -0.10239 -0.059035 -0.079972 0.055105 0.0094845 0.033327 0.1059 0.0027785 -0.036587 0.078423 0.00010084 0.11092 0.021473 -0.091985 -0.044916 -0.010648 -0.094018 0.02229 0.10846 0.047524 -0.14037 -0.023392 0.046951 -0.12943 0.14958 0.048187 0.064605 -0.0030219 3.3574e-05 0.018502 0.0096569 0.092062 0.086445 0.07728 0.01591 -0.17326 0.0027174 -0.0094968 -0.13722 0.0024596 0.039582 0.25734 -0.049951 -0.095508 0.05152 -0.077959 0.045378 0.050007 0.025914 0.23334 0.086212 0.051002 0.17655 0.0070594 -0.044381 0.12551 -0.037646 0.037404 -0.0055667 0.034986 -0.24002 -0.17546 -0.019779 -0.085096 -0.019267 
33489275 0.1588 -0.012639 0.050901 -0.039877 0.008276 0.067791 -0.064628 0.080838 0.040473 0.057748 -3.6881e-05 0.16999 -0.027023 0.070344 -0.15108 -0.012403 -0.041743 -0.0016333 0.039006 -0.16207 0.11543 -0.15735 0.23736 -0.059111 0.0050421 0.05029 0.12188 0.11385 -0.21334 0.16503 0.0036963 0.010014 0.0074565 -0.016691 -0.04025 -0.22141 0.084008 0.043315 -0.0024784 -0.022188 -0.18903 0.0022638 -0.060171 0.00070052 0.1724 -0.021558 0.04391 -0.046793 -0.10091 -0.128 -0.04773 -0.045212 -0.14107 -0.072427 0.032136 -0.25985 0.023228 0.092147 0.037251 0.1046 -0.02562 0.13071 -0.11513 0.10448 -0.07683 0.13971 0.024594 -0.05475 0.10046 -0.08605 -0.023816 0.061161 0.054075 -0.0096165 -0.10187 -0.1136 0.1538 -0.1136 -0.004674 -0.06622 -0.21752 -0.064939 0.021991 0.08547 -0.097493 -0.032694 0.048098 -0.078161 -0.058486 -0.068841 -0.062304 -0.14392 -0.083726 -0.036297 0.018178 0.065494 -0.057038 0.15921 0.014066 -0.04497 
46864793 0.018393 0.18418 -0.065679 0.094837 0.084398 0.1066 -0.081059 -0.083319 -0.050173 -0.022551 0.05853 0.10809 -0.016388 -0.0047496 -0.14375 -0.028095 -0.016125 -0.070995 0.064351 -0.060508 -0.076186 -0.079851 0.073068 -0.089564 -0.051355 0.06211 0.010604 0.037937 -0.24385 0.28231 -0.0042012 0.052452 0.17375 -0.001567 -0.00033791 0.027276 0.09252 0.063636 0.060434 -0.10299 -0.088434 -0.10034 0.02626 -0.077994 0.086653 0.011777 0.0017399 -0.046406 -0.11669 -0.049073 0.028281 -0.012373 -0.063951 -0.0039813 0.057265 -0.20729 0.027578 0.028002 0.038551 0.12857 0.13353 -0.02333 0.1363 -0.049729 0.045463 -0.11235 -0.065955 -0.022435 0.081936 0.044384 -0.077817 0.040827 -0.066416 0.00036452 -0.059647 0.056761 -0.022392 0.11547 -0.12952 -0.12785 -0.10253 0.052632 0.1507 0.1597 -0.01676 0.083434 0.1414 0.0032734 -0.080024 -0.01013 0.022651 -0.13775 0.10091 -0.12394 0.052592 -0.05547 -0.088347 0.19572 -0.098461 -0.12312 
46880246 0.16422 0.17664 -0.072821 -0.020699 0.046524 0.052222 0.080036 0.074743 0.067042 0.08424 -0.14628 -0.029498 -0.01058 -0.035442 -0.099378 -0.011283 -0.1281 -0.071245 0.17085 0.014482 0.040451 -0.0069191 0.083374 -0.048112 -0.084643 0.18566 0.12816 -0.082034 0.031352 0.10552 -0.050653 0.073763 0.023619 0.00057724 0.013443 -0.14079 -0.13597 -0.056635 0.0098539 0.033216 -0.15142 -0.13355 0.011025 -0.11999 -0.055354 0.045341 -0.071142 -0.020536 -0.25477 0.075184 0.07657 0.041112 0.0070288 -0.16478 -0.0048206 -0.24235 0.027074 0.041292 0.09969 0.057028 -0.027007 0.02359 -0.073546 -0.038169 -0.026211 0.05182 0.069918 -0.078165 -0.059569 0.06296 -0.10361 0.21713 -0.0040446 -0.040492 -0.01697 -0.1267 0.048836 0.019518 0.23997 -0.0597 -0.1915 -0.045852 0.0031819 0.23322 -0.041855 0.28823 -0.030741 0.075128 -0.038645 -0.056687 0.066747 -0.13036 -0.0566 -0.057987 0.21118 -0.067915 -0.0028192 0.057138 -0.070943 -0.11665 
39406930 0.078719 0.11387 -0.00057319 -0.016543 0.19965 0.021933 0.04102 -0.096272 0.0057791 0.022451 -0.048439 -0.019726 -0.040081 0.041278 -0.1203 -0.046534 -0.18468 -0.091959 0.18238 -0.005109 0.022346 -0.11655 0.091081 -0.097198 -0.082795 0.14806 0.0077918 -0.072258 -0.05877 0.25743 0.082296 0.072763 0.12026 0.025059 0.0060848 0.014498 -0.0074242 0.058643 0.035334 0.068404 -0.15789 -0.13312 -0.0037234 -0.11912 -0.018241 -0.019515 0.040897 -0.073939 -0.17024 -0.028076 0.1699 0.021073 -0.095583 -0.10998 0.077816 -0.25316 0.041854 0.068203 0.044178 0.12552 -0.036373 -0.01371 -0.0086071 -0.097661 -0.007583 0.035815 0.09364 -0.12508 0.0010631 0.010671 -0.12711 0.22946 -0.048958 -0.027149 -0.06987 -0.059806 0.06455 0.033604 -0.030526 -0.11009 -0.20274 -0.03375 0.073485 0.18795 -0.095181 0.21014 0.02054 -0.036731 -0.033874 -0.12203 -0.0069437 -0.14315 0.0079011 -0.085757 0.1753 -0.0515 -0.0075012 0.16106 -0.070762 -0.049661 
42109178 0.11723 -0.057689 -0.1293 0.044517 -0.029188 0.14264 -0.29528 0.062188 0.10469 0.070861 -0.016119 0.15178 0.02337 -0.027128 -0.12742 -0.0025279 -0.11209 0.040293 0.064988 -0.025881 0.13725 -0.14649 0.059375 -0.03593 -0.078002 0.036945 0.094452 -0.014799 -0.17295 0.058969 0.13773 -0.088893 -0.034611 0.13582 -0.03083 -0.25915 0.097113 0.056082 0.026786 -0.052576 -0.1186 -0.018996 -0.04036 0.024345 0.18512 -0.059069 0.046792 0.086285 -0.16524 0.013374 -0.097579 0.10622 -0.048956 -0.047208 -0.050229 -0.21534 0.097567 0.1158 -0.018087 0.1905 -0.061348 0.059753 -0.017365 -4.8694e-05 0.0106 0.1173 0.062249 -0.00079148 0.033559 0.10646 -0.0013484 0.16883 0.030859 -0.047765 0.11187 -0.10073 0.076955 -0.081073 0.016019 -0.066582 -0.1032 -0.13155 0.044471 -0.0017657 0.021628 -0.11511 -0.096216 -0.082507 -0.10858 -0.074383 -0.018762 -0.086352 -0.081419 -0.014336 -0.073604 -0.10224 0.043062 0.095244 0.084699 0.050773 
42109171 0.088301 0.024076 -0.19415 0.046379 -0.05082 0.15976 -0.23787 0.035705 0.17295 0.036747 0.0451 0.18687 0.053437 0.021148 -0.048655 0.10177 -0.053749 0.082443 -0.027486 -0.0062421 0.16071 -0.077803 0.15632 -0.064927 -0.027593 -0.050423 0.052406 -0.060528 -0.23613 0.019038 0.17402 -0.0081738 -0.028773 0.10809 -0.047529 -0.26132 0.054764 -0.040494 -0.036271 -0.041743 -0.072691 0.066186 -0.049859 0.023665 0.15494 -0.036109 0.071492 0.11284 -0.12922 0.018116 -0.10751 0.079516 0.053722 0.042222 -0.0063867 -0.10202 0.089251 0.074901 -0.087686 0.11724 0.0036709 0.038969 0.042415 0.11073 0.12053 0.075959 0.10885 -0.061318 0.046007 0.10724 -0.14664 0.12206 0.043264 -0.10316 0.089429 -0.079496 0.060203 -0.089453 -0.060786 -0.049447 -0.1607 -0.12502 0.087077 0.011798 0.027232 -0.041809 -0.080652 -0.07322 -0.059513 -0.074125 0.040987 -0.026819 0.010465 0.018377 -0.08717 -0.14993 0.014398 0.059687 -0.047127 0.049997 
40310046 0.093274 0.26947 -0.12631 0.0538 0.15222 0.0022696 0.14547 0.023851 -0.005457 -0.086972 0.0047446 0.039039 -0.019301 0.049103 0.0067545 -0.012586 0.092441 0.12013 -0.00065564 -0.083006 -0.057722 -0.026082 0.20203 0.026678 -0.059124 0.0693 -0.074841 0.083613 -0.15048 0.13509 0.06211 -0.0016994 0.06641 0.173 0.049838 -0.12516 0.090413 0.06817 -0.13636 0.039485 0.0063406 -0.0066334 0.13028 0.02355 0.15584 0.064514 0.0035026 -0.013325 -0.038251 -0.073633 0.034442 -0.12528 0.015171 0.073311 0.080541 -0.11942 0.041284 -0.085859 0.018802 0.17851 -0.053427 -0.015485 0.11427 0.10493 0.089388 0.076374 0.030644 0.0023683 -0.026184 0.042794 -0.20783 -0.0091147 -0.16634 0.0040113 -0.12253 -0.045046 0.018605 0.064388 -0.10851 0.10562 -0.19853 0.17033 0.14287 0.16131 -0.028191 -0.021119 0.071989 0.16508 -0.052356 -0.070718 0.18502 -0.071215 0.1222 -0.029656 0.054981 0.010097 -0.22663 0.19738 -0.0999 -0.054389 
42109174 0.097558 0.026121 -0.23422 0.10047 0.061719 0.15347 -0.18134 0.1843 0.22887 0.038518 0.00099466 0.15267 0.051995 0.03825 0.024916 0.1284 -0.13809 0.058156 -0.084598 -0.039633 0.15017 -0.031162 0.14067 -0.073316 0.034897 -0.095166 0.084128 0.015155 -0.12447 0.067934 0.19029 -0.14573 -0.051823 0.13462 -0.0065618 -0.17446 0.087557 -0.033566 0.04408 -0.02476 -0.013501 0.14204 0.016316 0.072411 0.1309 -0.0073268 0.085453 0.1255 -0.10944 -0.032426 -0.10544 0.0097719 -0.01622 0.070283 0.0029384 -0.089417 0.1235 0.044773 -0.086291 0.1737 -0.016431 0.074035 0.0046093 0.09078 0.11397 -0.027395 0.1112 -0.069261 0.041266 0.1806 -0.17816 0.088046 0.020849 -0.10294 -0.0017663 -0.036405 0.13282 -0.026093 -0.089531 0.0008149 -0.10685 -0.095895 0.065887 -0.073668 0.16596 -0.090581 -0.03873 0.068683 -0.11285 -0.12786 -0.038521 -0.023359 0.05737 -0.051383 -0.028631 -0.21743 -0.043626 0.022675 -0.06291 0.11083 
46878456 0.065652 0.13811 -0.085171 0.067811 0.10424 0.045324 -0.12444 -0.076879 -0.028813 0.10223 0.040289 0.049601 -0.05026 0.02077 -0.24941 -0.075096 -0.023954 -0.098438 0.14549 -0.062985 -0.070287 -0.079517 0.10248 -0.046429 -0.067715 0.094612 0.03043 0.026056 -0.13979 0.29901 -0.06161 -0.064781 0.10643 0.015716 0.022073 -0.032774 0.054756 0.11147 0.035276 -0.006351 -0.15162 -0.16106 0.0091991 -0.091386 0.10881 -0.05001 -0.021948 -0.046705 -0.17122 -0.065268 0.13172 0.030301 -0.040267 -0.066157 0.022691 -0.31019 0.10251 0.06735 0.10472 0.069716 0.116 0.050144 0.037459 -0.1373 0.033304 -0.089178 -0.0062548 -0.022796 0.022497 0.00054877 -0.055358 0.05781 -0.043909 0.040879 -0.094279 -0.016758 -0.020042 0.068352 -0.12828 -0.12149 -0.13904 0.038369 0.14435 0.19295 -0.014972 0.087567 0.038274 0.10694 -0.072224 -0.026468 0.043303 -0.18455 0.059174 -0.11418 0.099373 -0.0051286 -0.043366 0.19703 -0.069263 -0.17912 
34255906 0.16632 -0.0368 0.052521 0.020452 0.064936 -0.03608 -0.035825 0.15533 0.15501 -0.08582 -0.025654 0.21031 0.079145 0.034639 0.027386 0.083791 -0.025257 0.090445 -0.13792 -0.18164 0.13014 -0.086066 0.26983 -0.11591 0.1404 -0.088096 0.13298 0.060776 -0.24187 0.17125 0.030066 0.10546 -0.021703 -0.034127 -0.023253 -0.13569 0.087492 -0.034808 -0.03776 0.022917 -0.11024 0.13434 -0.055329 0.054948 0.15994 -0.062448 0.073794 -0.11832 -0.031295 -0.19842 -0.1095 -0.17156 -0.14763 -0.01857 0.046307 -0.18335 -0.0011469 0.011439 -0.022183 0.095514 -0.035911 0.22968 -0.17117 0.16218 -0.057254 0.046386 0.030466 -0.09437 0.091077 -0.083825 -0.076299 -0.072644 0.033073 -0.05529 -0.10514 -0.050013 0.18045 -0.15626 -0.055392 0.035628 -0.26089 -0.04486 0.027698 0.036081 0.010372 -0.018277 0.10259 -0.021271 0.079435 -0.094242 0.015075 -0.07701 0.016683 -0.11223 0.067632 -0.094842 -0.12963 0.029226 -0.044725 0.023654 
41663223 0.0068388 0.19774 -0.093542 0.10314 0.15702 0.09504 0.018826 -0.086926 -0.090643 -0.030578 0.084044 0.053958 0.026296 0.10306 -0.090626 0.046529 -0.042043 -0.02005 0.10244 -0.019021 -0.022254 -0.10384 0.18135 -0.10762 0.022613 0.095531 -0.0083848 -0.043444 -0.25229 0.22778 0.032765 0.040649 0.15578 0.091064 -0.033461 0.10763 0.057367 0.0020285 0.079822 -0.055009 -0.033937 -0.076685 0.0025566 -0.049564 0.015825 0.050201 0.019892 -0.070856 -0.0944 0.040383 0.050509 -0.0015369 -0.10888 0.030821 0.069297 -0.20141 0.08457 0.10291 0.096318 0.14525 0.05701 0.064403 0.16753 -0.063681 0.12593 -0.016295 0.030631 -0.090359 0.056903 0.042004 -0.14126 0.0014075 -0.038587 -0.00073403 -0.050041 0.04533 0.0264 0.0020806 -0.16775 -0.15165 -0.13083 0.052107 0.099228 0.11895 -0.021078 0.15128 0.066819 0.014893 -0.060735 -0.018068 0.022077 -0.067121 0.081128 -0.08234 0.12018 -0.19066 -0.11172 0.22309 -0.12304 -0.12176 
32731574 0.10487 0.2225 -0.1092 0.01429 0.0054908 0.088309 0.1541 0.11084 0.12446 0.025719 -0.13009 -0.00094836 0.024859 -0.019218 -0.009202 0.010274 -0.038986 -0.030776 0.076908 0.061164 0.02649 0.014886 0.073853 -0.047281 -0.038323 0.11191 0.065655 -0.060787 -0.0054974 0.041801 -0.070739 0.090845 -0.07363 -0.00066322 0.032849 -0.051648 -0.13203 -0.062599 -0.054817 -0.0085419 -0.029755 -0.073702 0.019192 -0.075449 -0.06188 0.097295 -0.03796 -0.011562 -0.13947 0.035258 -0.0042136 0.013122 0.02627 -0.11801 0.080357 -0.15144 0.007148 0.0024762 0.086415 0.099333 -0.030459 -0.056364 -0.034485 0.057839 0.090384 -0.0011756 0.032906 -0.12224 -0.090728 0.065641 -0.16453 0.16791 0.00399 -0.1286 0.014539 -0.12938 0.042468 -0.0047703 0.16338 0.021175 -0.26593 0.023201 0.057668 0.1557 -0.0031616 0.28212 0.012202 0.061521 0.041588 -0.083842 0.12661 0.00042822 0.053747 -0.11461 0.1294 -0.17192 -0.065753 0.052704 -0.15105 -0.085121 
35548930 0.13065 0.1541 -0.142 -0.078904 0.13731 -0.035085 -0.047998 0.13636 0.072272 -0.033878 -0.063958 0.12553 0.10613 0.060266 0.16743 -0.081757 -0.11658 -0.033087 0.013033 0.055944 0.12372 -0.013391 0.15044 -0.027851 0.030517 -0.054299 0.046542 -0.042193 0.067696 0.011539 -0.014142 0.035015 0.087257 0.036209 0.026514 -0.066483 -0.12064 0.033656 -0.044615 0.053143 0.096823 0.11863 -0.067255 -0.17838 -0.052282 0.12823 0.09614 0.10038 0.0063139 0.043247 -0.036754 -0.045809 -0.067613 0.085601 0.11969 -0.13122 -0.00073299 0.17543 -0.0011352 0.17173 -0.11518 0.0062633 -0.08963 0.0076692 0.13498 -0.061335 0.065049 -0.068594 -0.17151 0.10481 -0.1645 0.020759 0.043402 0.002878 0.13108 0.078219 0.10188 0.066116 -0.034419 0.048613 0.026094 -0.049142 0.10914 -0.012519 0.21057 0.085961 -0.066244 0.11277 -0.15575 -0.099571 0.19227 -0.10167 -0.050442 0.024836 0.010474 -0.1804 -0.24171 -0.0066815 0.014417 0.099714 
35549495 0.14281 0.1415 -0.11588 -0.18729 0.013151 -0.083937 -0.070768 0.1347 0.06521 0.13728 -0.032152 0.19121 -0.0085302 0.089605 -0.065372 -0.053809 -0.1332 -0.061323 0.098677 0.074675 0.13403 -0.025154 0.11128 -0.059589 -0.16552 0.082799 0.18797 -0.051035 0.039454 0.050357 -0.053718 -0.010541 -0.065439 0.01451 0.0013542 -0.1693 -0.15795 0.011734 -0.09292 0.042648 0.016195 -0.1279 -0.080669 -0.21427 -0.027345 0.13018 -0.033473 0.13923 -0.16608 0.1147 0.069611 0.054339 -0.0055008 -0.10851 -0.0071075 -0.15917 0.01841 0.16163 0.14345 0.0070187 -0.15889 -0.097475 -0.049746 -0.023732 -0.033313 -0.049662 0.053998 0.010349 -0.15602 0.0092627 -0.14589 0.13544 0.044397 0.021638 0.16381 0.035397 0.054644 -0.036025 0.01696 -0.13381 -0.099787 -0.032658 0.084938 0.18159 0.04106 0.10745 -0.0068662 0.051836 -0.16992 -0.14978 0.10472 -0.17129 0.013802 -0.020844 0.11844 -0.061089 -0.0284 0.091795 -0.028996 0.0048075 
48660331 0.055464 0.10641 -0.096072 0.12649 0.014211 0.14108 -0.21835 -0.021373 0.11146 -0.013502 -0.059169 0.1823 0.027969 -0.025304 -0.13252 -0.054734 -0.0016313 0.022754 0.10526 0.0076399 0.13132 -0.18787 0.14391 -0.0064944 -0.1206 0.018642 0.07426 -0.030441 -0.2155 -0.017028 0.14887 -0.11 0.0083785 0.16301 -0.076761 -0.24138 -0.029794 0.084902 -0.0038094 0.023398 -0.1159 -0.10083 -0.07456 -0.045216 0.17802 -0.021617 0.086756 0.099285 0.025945 0.01996 -0.01238 0.13596 -0.073958 -0.1635 0.037333 -0.3223 0.080861 0.06112 -0.036777 0.10847 -0.16804 0.17443 -0.072804 -0.066314 -0.074825 0.056317 0.087447 0.021165 0.064645 0.029542 -0.15449 0.13543 -0.065655 -0.13476 0.083449 0.017864 0.090139 -0.050194 0.044263 -0.059562 -0.088216 -0.083582 0.00070665 -0.059523 0.083644 -0.053891 -0.077768 -0.013569 -0.17482 -0.1217 0.040507 -0.04382 -0.02421 -0.035214 -0.012057 -0.058884 0.077435 0.073802 0.084522 0.039985 
34887050 0.17754 0.0099655 -0.057261 0.082388 0.022564 -0.024315 -0.056571 0.039322 -0.070456 -0.13786 -0.086532 0.052616 -0.10561 -0.11356 -0.094165 -0.040543 -0.33087 -0.033681 -0.019956 0.018133 -0.037668 -0.10907 0.12504 -0.039985 -0.18199 0.083461 0.025362 0.0034818 0.024089 0.081122 -0.22243 0.017569 -0.0096352 -0.051312 -0.038909 -0.045922 0.064553 -0.11294 -0.12107 -0.062089 0.093697 -0.070295 0.10621 -0.053072 0.033408 0.22714 -0.051687 -0.097698 -0.15623 0.031544 0.065476 0.1281 -0.17094 -0.11104 0.044155 -0.27249 0.092606 0.025615 0.1595 -0.11293 -0.031102 -0.14419 -0.030113 -0.025692 0.1026 -0.17692 -0.11891 -0.0022466 0.021016 0.016592 -0.002019 0.27052 -0.13312 0.022934 -0.015804 0.03598 0.071533 -0.016942 0.071779 0.020635 -0.051371 -0.022724 -0.021112 0.20143 0.078711 0.064622 -0.036052 0.27032 -0.25442 -0.12943 0.041336 -0.22313 0.084953 -0.038994 0.040928 -0.21402 -0.077491 0.037287 0.093399 0.060967 
45001002 0.065705 0.054545 -0.084055 0.14883 0.0040413 0.11575 -0.20762 0.0040795 0.037425 0.079763 -0.098724 0.19435 0.058723 -0.067964 -0.093353 -0.051616 -0.011362 0.045013 0.012415 0.074123 0.09147 -0.26347 0.060747 -0.052656 -0.1111 0.070881 0.10457 -0.023991 -0.11549 -0.0234 0.094148 -0.14693 0.034328 0.13377 -0.12294 -0.16946 0.095396 -0.014609 0.027874 0.027151 -0.09263 -0.067599 -0.01099 0.054568 0.23558 -0.067432 0.0064485 0.18728 -0.021855 0.063798 -0.02564 0.089566 -0.050663 -0.033774 0.0080634 -0.19521 0.11514 0.048432 0.024838 0.16419 -0.072309 0.15084 0.096408 -0.067606 0.0016218 0.18878 -0.039062 -0.010859 0.1308 0.11512 -0.048878 0.15412 -0.008707 -0.14718 0.079472 -0.14737 0.14027 -0.070135 0.0031826 -0.064293 -0.13901 -0.13531 -0.061341 0.06417 0.0034227 -0.017982 -0.010519 -0.089794 -0.043719 -0.15178 0.050986 -0.057248 -0.081612 -0.016854 -0.075431 -0.10068 0.096965 0.069803 0.091462 0.065714 
39866802 0.15538 0.11885 -0.034004 0.059624 0.09134 0.20397 0.080686 -0.007032 -0.081018 -0.12833 -0.016593 0.13767 0.013592 -0.076275 -0.043942 -0.063852 -0.16802 0.030133 0.16389 0.0014292 -0.069049 0.049386 0.10684 -0.065464 -0.10766 0.060374 -0.026136 -0.080967 -0.034371 0.23541 0.0245 0.060703 0.20372 0.086272 -0.08172 0.079598 0.025825 -0.036592 -0.027376 -0.081246 -0.13372 -0.1443 0.032915 -0.17482 -0.035143 -0.0057564 -0.11964 -0.033398 -0.1784 -0.11009 0.066759 -0.10931 0.018884 -0.052412 0.020412 -0.26413 -0.021935 0.038355 -0.00339 0.10193 0.020307 -0.060849 0.16124 0.098629 -0.052686 -0.069305 -0.058441 -0.10159 0.034658 0.02439 -0.11944 0.24544 -0.079611 0.065216 0.050166 0.18299 -0.11518 0.12342 0.050344 -0.1006 -0.099157 0.051178 0.090349 0.11531 0.0015694 0.077231 0.04784 -0.054605 -0.0061888 0.023263 0.056683 -0.080502 0.091618 -0.048468 0.06288 -0.0073278 -0.069831 0.11134 -0.032573 -0.12762 
32593640 0.057337 0.019255 -0.10203 0.049347 0.02041 0.078699 0.016632 -0.0027702 -0.037678 0.056363 -0.10386 0.0010827 -0.040423 0.0079478 -0.045965 -0.038299 -0.14701 0.12573 -0.050162 0.015273 -0.04123 -0.076362 0.12284 0.032756 -0.11586 0.1397 0.12321 -0.048205 0.056298 0.11368 -0.082376 -0.027955 -0.030622 -0.0020228 0.020586 -0.14575 -0.030618 -0.093262 -0.010551 0.046858 0.025752 -0.09308 0.088902 0.013972 -0.033371 0.19691 0.069153 -0.10166 -0.10621 -0.0353 0.046865 0.081467 -0.11366 -0.086226 0.081114 -0.26511 0.090346 0.013854 0.012693 -0.0076409 -0.027353 -0.077491 -0.16339 -0.20032 0.13556 -0.15281 0.12789 -0.05155 -0.010902 -0.064678 -0.077813 0.23938 -0.16512 -0.0043327 0.091528 -0.06118 0.16039 -0.081792 0.14269 0.007574 -0.13232 -0.073862 -0.089338 0.17115 0.033019 0.11649 -0.065247 0.19767 -0.12607 -0.10434 0.17082 -0.18295 0.008334 0.031336 0.050976 -0.11074 -0.060638 0.069138 0.075666 0.069926 
43676103 0.13747 -0.04009 -0.13136 0.098374 0.037142 0.28317 -0.28993 0.25366 0.24091 -0.028729 -0.031247 0.2422 0.048816 -0.12437 -0.040147 0.041408 -0.029363 -0.062541 -0.14792 -0.098528 0.087087 -0.13356 0.074888 -0.11684 0.05279 -0.080227 0.2573 0.075735 -0.16865 0.13329 0.063849 -0.045498 -0.033255 -0.11003 0.036853 -0.11727 0.20527 -0.040612 0.095642 -0.068787 -0.010785 0.090534 -0.086419 0.084332 0.34821 0.026716 0.0071735 0.22236 -0.010871 -0.081835 -0.069468 -0.12279 0.014337 0.12704 0.077197 -0.24058 -0.055393 0.086459 -0.035374 0.06455 0.16767 -0.045591 0.069344 0.11146 -0.088738 0.045612 -0.033119 0.042563 0.065064 -0.0045274 -0.0071967 0.11593 0.00072861 -0.11631 0.1556 -0.0033384 0.28092 0.035873 -0.0066347 -0.0232 -0.038743 -0.21482 0.018805 -0.039556 -0.034879 -0.034249 -0.027829 -0.029926 -0.099424 -0.12695 -0.059505 -0.023474 0.076882 -0.044851 -0.15932 0.033814 -0.07902 0.091808 0.057212 -0.010365 
46860064 0.10932 0.050292 -0.030275 -0.07186 -0.088293 0.0064165 -0.19062 0.10272 0.058388 0.053289 -0.017148 0.16043 0.094578 -0.089674 0.025409 -0.099128 -0.017906 -0.12338 -0.088526 0.061558 0.054457 0.003491 0.098604 -0.061061 -0.054153 0.00048912 -0.012675 0.018738 -0.0078841 0.048912 -0.14257 -0.0081767 0.077503 0.024804 -0.037134 0.0045195 -0.052343 0.0049546 -0.12179 -0.11153 0.041146 0.070992 0.087881 -0.20702 0.1215 0.11 0.076036 0.15013 0.061997 -0.03509 -0.044975 -0.057925 0.034254 0.16282 -0.005145 -0.16487 -0.10072 0.16293 -0.012288 -0.029256 0.067135 -0.19243 -0.014821 -0.12553 0.02012 -0.024728 -0.077123 0.069233 0.014685 0.03553 -0.071515 0.060854 0.067197 -0.041878 0.17905 0.12084 0.16647 0.23889 -0.067226 -0.10959 0.019213 0.033598 0.13351 0.06809 0.2612 0.18995 0.029218 -0.021651 -0.2723 -0.24173 0.10664 -0.14339 0.026293 -0.092148 -0.027909 -0.1017 -0.16525 0.069232 0.014502 0.005219 
41283674 0.12923 0.071187 -0.064779 0.11899 0.056182 0.12396 0.15991 0.13613 -0.043007 -0.0219 -0.047916 0.25567 0.073147 0.05686 0.061665 -0.016757 -0.0783 -0.14636 0.21472 -0.027906 0.035749 0.013899 0.057631 -0.17355 -0.20169 0.082041 0.026858 0.047874 -0.041204 0.11231 -0.19991 0.005099 0.15932 -0.013768 -0.058362 0.056593 -0.16368 -0.044638 -0.086503 -0.1152 -0.025912 -0.12988 0.15073 -0.053734 0.15858 0.069022 -0.098834 0.021174 -0.22643 0.0057867 0.037735 0.012624 -0.081822 -0.18097 -0.039575 -0.35956 0.12871 0.01431 0.20731 0.095557 -0.056282 0.037144 -0.025216 -0.13726 -0.006804 -0.18841 0.066009 0.096428 0.11721 0.12666 -0.097131 0.22508 -0.12824 0.090638 0.029791 -0.060408 -0.056402 0.073282 0.06527 -0.19383 0.022087 0.049408 0.089705 0.23643 -0.028189 0.10692 -0.092457 -0.06784 -0.058956 -0.1801 0.24033 0.030575 0.045727 -0.076049 0.11927 0.095852 0.061775 0.038739 -0.075306 -0.068124 
43676106 0.15361 -0.00031708 -0.1165 0.097629 0.12661 0.20236 -0.20793 0.26075 0.31288 0.020283 0.017612 0.18032 0.077283 -0.056916 0.037269 0.12538 -0.087027 0.051249 -0.091235 -0.070196 0.18905 -0.06561 0.13572 -0.11843 0.044594 -0.07772 0.20188 0.035189 -0.13653 0.082249 0.16327 -0.031125 -0.058635 0.059335 0.055861 -0.17503 0.16965 -0.14254 0.075325 0.017283 -0.012811 0.19223 -0.076975 0.11714 0.18646 0.030219 0.004541 0.17094 -0.11616 -0.010952 -0.040531 -0.096821 -0.024852 0.27374 -0.013865 -0.19452 0.047367 0.097925 -0.049254 0.17015 0.066147 0.089081 -0.05608 0.13107 -0.0078564 0.081622 0.055369 0.035255 0.039254 0.0099607 -0.11864 0.012902 -0.018714 -0.1124 0.10976 -0.087766 0.23711 -0.069751 -0.12094 0.10737 -0.14037 -0.10794 9.6294e-05 -0.062457 -0.0037453 -0.037575 -0.093465 0.080404 -0.058489 -0.12227 -0.03941 0.0051736 -0.0072855 -0.0054328 -0.0097549 -0.12329 -0.065448 0.084253 -0.099513 0.027153 
32750199 0.15036 0.064831 -0.04092 0.18903 0.078184 0.1154 0.087368 0.051705 0.0091334 0.016677 -0.11317 0.12985 0.069137 0.0024686 0.10255 0.018069 0.13904 -0.048021 0.14125 0.048804 0.053949 -0.077538 0.012586 -0.084419 -0.13003 0.023085 0.006585 -0.025296 -0.06279 0.093118 -0.16476 0.14961 0.18572 0.10134 -0.017262 -0.1128 -0.17708 0.0055898 -0.14219 0.022554 -0.047171 -0.12514 -0.028064 -0.12975 0.047332 0.025743 -0.021815 -0.056607 -0.2158 -0.066105 -0.039608 0.046558 -0.035631 0.0027863 -0.012103 -0.20267 0.0041463 0.021729 0.0074163 0.17557 0.0086734 -0.023741 0.041926 -0.11646 0.072527 -0.046235 0.11048 0.029826 0.024409 0.20564 -0.095116 0.082447 -0.057425 0.017833 0.16409 -0.098846 0.060956 0.080439 -0.067645 -0.1026 -0.16578 0.12795 0.037691 0.085279 -0.010772 0.039499 -0.16558 0.055687 -0.049818 -0.054072 0.15289 0.062128 -0.10068 -0.044085 0.068984 0.011599 -0.06184 0.12674 -0.10051 -0.056833 
46874276 0.1341 0.083595 -0.062845 0.058542 0.051563 0.016375 0.19445 0.090116 0.0097431 0.11123 -0.078795 0.2045 -0.043078 0.094292 0.073972 0.086591 -0.12859 -0.1139 0.11966 0.033184 0.10942 -0.035177 0.13717 -0.064472 -0.19801 0.094502 0.069817 -0.068421 -0.038921 0.15492 -0.17183 0.052118 0.17138 -0.021852 -0.055197 -0.054003 -0.22416 -0.064856 -0.14674 -0.025367 -0.060032 -0.077394 0.052458 -0.063533 0.1255 0.042089 -0.0095343 0.042872 -0.24024 -0.0063407 0.086789 0.060638 -0.10114 -0.15479 -0.031358 -0.32665 0.1483 0.028072 0.17667 0.12898 -0.05495 0.13325 -0.11751 -0.07735 0.091423 -0.059187 0.1563 0.039276 0.058032 0.12428 -0.13789 0.18448 -0.067693 0.040783 0.089203 -0.054961 -0.058723 -0.024617 0.051538 -0.16991 0.00066374 0.045537 0.12398 0.21852 -0.081704 0.1448 -0.0873 -0.070334 -0.067812 -0.13881 0.20509 -0.018459 -0.055405 0.014957 0.06463 0.056005 0.057959 0.075135 -0.097799 -0.073272 
39585162 0.097866 0.14435 0.0017299 0.12082 0.0738 0.032366 0.17422 0.13359 0.10355 0.093199 -0.078518 0.23751 0.042282 0.078983 0.066126 0.15969 -0.0023108 -0.057006 0.056308 0.052681 0.11347 -0.063308 0.097495 -0.0055703 -0.092935 0.016808 0.047161 -0.024143 -0.080297 0.15083 -0.18516 0.10814 0.24364 0.0060073 -0.040984 -0.045399 -0.19027 -0.016021 -0.13188 -0.068253 -0.070204 -0.050213 0.03887 0.0068252 0.15969 0.11284 -0.020746 -0.0069858 -0.19813 0.0020577 0.010743 0.091759 -0.055029 -0.0059404 0.048043 -0.20159 -0.012763 0.012647 0.016269 0.19335 0.051534 0.068117 -0.007554 0.041542 0.20207 -0.098563 0.052034 0.0013265 0.11789 0.066174 -0.082265 0.092752 -0.062253 0.056887 0.13138 -0.0047166 -0.0036363 -0.0038028 0.043333 -0.18235 -0.06435 0.08276 0.18763 0.24355 0.02419 0.11766 -0.094601 -0.027358 -0.004335 -0.17554 0.17214 0.0809 -0.040197 0.04329 -0.066725 -0.010661 -0.013421 0.081585 -0.10057 -0.12197 
33525912 0.014985 0.10373 0.043857 0.10938 -0.15018 0.14006 -0.098857 0.0021979 -0.028846 0.016643 -0.13386 -0.01928 -0.11146 -0.10636 -0.034327 -0.043125 -0.031751 0.12278 -0.10017 0.054459 -0.037509 -0.13323 0.078409 0.0093956 -0.1567 0.139 -0.016668 0.16805 -0.037965 0.15215 0.024372 -0.030037 0.026165 -0.019372 -0.016837 -0.00867 0.023422 -0.039692 -0.057611 -0.14425 0.065571 0.048436 0.24343 0.0011349 0.1032 0.085609 0.12694 -0.06315 -0.036511 -0.033241 0.031417 0.10167 0.0097179 -0.002148 0.12929 -0.28992 0.024282 0.037591 0.085258 0.064942 0.081324 -0.081191 0.0014883 -0.072357 0.068822 -0.033873 -0.080842 0.040217 0.092429 -0.098808 -0.16159 0.24813 -0.053063 -0.12061 0.058244 -0.055818 0.020488 0.18979 -0.05138 0.019921 -0.13825 0.14844 -0.11019 0.092275 0.10041 0.059764 0.0063671 0.075052 -0.13434 0.0023866 0.065841 -0.046434 0.022256 -0.11661 -0.043302 0.050915 -0.082057 0.18334 0.095807 0.071772 
46874274 0.16172 -0.012938 -0.015715 0.17547 -0.089381 0.14219 -0.26419 0.070132 0.038057 0.14205 -0.10211 0.14356 -0.0071837 -0.10999 -0.12767 -0.051173 0.039325 -0.0056276 0.12725 0.065702 -0.053967 -0.255 -0.053554 -0.070743 -0.1833 0.049011 0.040244 0.12779 -0.097194 -0.0050183 -0.16109 0.028834 0.075515 0.10386 -0.17203 -0.16914 -0.0050316 0.011062 -0.062653 -0.059319 -0.20401 -0.20105 0.061313 -0.014218 0.019706 -0.075939 0.056006 -0.0077201 -0.13831 -0.15054 -0.073131 0.099724 -0.037655 -0.13832 0.00077418 -0.17626 -0.056971 0.13999 0.027797 0.19334 0.0088037 -0.037153 0.081796 -0.10058 0.012981 0.10805 -0.088243 0.090315 0.067748 0.042516 0.12097 0.17251 0.032663 -0.1014 0.090517 -0.11405 0.081318 -0.0066938 -0.027399 -0.16542 -0.099006 0.076253 0.0093486 -0.057484 -0.027464 0.042187 0.057666 -0.056724 -0.035109 -0.072704 -0.0093327 0.0078142 -0.069368 0.058541 -0.020861 -0.031674 0.010138 0.28046 0.017471 -0.022755 
31368437 0.17969 -0.10145 0.031616 0.10598 0.0041417 0.20391 -0.15808 0.10053 0.054927 -0.078513 0.11861 0.2335 0.11077 -0.10477 -0.089971 -0.03289 -0.036935 -0.035428 0.032351 -0.085008 0.056375 -0.18705 0.11976 -0.14971 -0.020032 0.023583 0.1937 0.039002 -0.10325 0.046732 -0.044927 0.089958 -0.066304 -0.087821 -0.010174 -0.10899 0.080795 -0.020464 0.064234 -0.052062 -0.22332 0.0038896 -0.12523 -0.03658 0.28175 -0.13794 -0.021804 0.16104 -0.065406 -0.12899 -0.099486 -0.073069 -0.10095 -0.04205 -0.027698 -0.38059 -0.080326 0.16955 -0.048677 0.07709 0.073159 0.038489 0.0091554 -0.0092254 -0.19999 0.012958 -0.049047 0.08577 0.082402 -0.091365 -0.0032966 0.044416 0.004663 -0.078749 0.11614 -0.020548 0.24651 -0.063363 -0.010708 -0.10608 -0.12149 0.013239 0.13765 0.051272 -0.097571 0.0031065 -0.060686 -0.073216 -0.01035 0.038569 -0.022043 -0.058906 -0.023884 -0.0055263 -0.15034 0.13456 -0.1286 0.093971 -0.0098229 0.035638 
43676102 0.21242 -0.058251 -0.066678 0.13269 0.044413 0.173 -0.24353 0.30629 0.20086 -0.069653 0.024269 0.24598 0.093847 -0.014988 0.08967 0.091263 -0.072922 0.10971 -0.056823 -0.13399 0.20329 -0.16 0.12005 -0.089577 0.052535 -0.024704 0.1899 0.044879 -0.1888 0.062379 0.11663 -0.033736 -0.048098 0.0186 0.07372 -0.15052 0.20611 -0.11507 0.096354 0.028279 -0.054882 0.204 -0.13083 0.13099 0.24858 0.061421 0.022523 0.15966 -0.052852 -0.021516 -0.09001 -0.18784 -0.10176 0.12012 -0.087094 -0.25358 0.049576 0.11764 -0.011248 0.15869 0.04439 0.15658 -0.086826 0.13046 -0.10964 0.050188 0.052848 0.019 -0.00067403 -0.0048896 -0.088329 0.0036162 0.045175 -0.14589 0.10523 -0.13423 0.24541 -0.14409 -0.058146 0.16316 -0.087725 -0.086396 0.017956 -0.058865 -0.014771 -0.028368 -0.046794 0.071596 -0.028663 -0.10888 -0.024843 -0.018088 -0.0085779 -0.055738 -0.035261 -0.10584 -0.047562 0.029122 -0.094857 0.10113 
32731648 0.049085 0.13894 -0.0074627 -0.09634 0.081154 -0.014142 0.095588 -0.012811 0.074181 0.050918 0.056756 0.11889 0.01305 -0.044254 0.010216 -0.0016464 -0.019596 0.10974 0.06028 -0.11218 -0.03974 0.0036846 0.2016 0.01136 -0.077543 0.082591 -0.043947 -0.0081136 -0.096753 0.16058 0.076266 0.095261 0.01557 0.12395 -0.0096942 -0.1358 -0.0082188 0.11896 -0.085856 0.08763 -0.18615 -0.083484 0.13269 -0.038064 0.17946 -0.02113 0.023543 -0.044566 -0.077539 -0.07466 0.059815 -0.028689 0.011672 -0.0048019 0.12585 -0.18279 -0.014904 -0.08194 0.063275 0.059348 0.011995 0.064544 0.066625 0.15525 0.081576 0.068757 0.065667 -0.14341 0.019328 -0.014886 -0.11249 0.098425 -0.08374 -0.089369 -0.1571 -0.14753 0.10256 -0.0019512 0.060262 -0.021767 -0.30214 0.033985 0.063628 0.1004 -0.12928 0.02355 0.00062144 0.010312 0.037828 -0.01741 0.11902 -0.13266 0.04405 -0.11386 0.064997 -0.056999 -0.05725 0.10044 -0.062149 -0.080816 
30542058 0.15077 0.07229 -0.18562 0.0056798 0.18243 -0.016303 -0.076938 0.15961 0.14325 -0.050694 -0.10569 0.18391 0.05387 0.0091064 0.11442 -0.09514 -0.13223 -0.046741 -0.075563 0.10741 0.15331 -0.044468 0.13762 -0.09154 0.084468 -0.042555 0.14122 -0.031291 0.068686 0.038718 0.0073068 -0.072995 0.04827 -0.026168 0.081558 -0.08311 -0.1868 0.033915 0.00045401 0.047619 0.12284 -0.053442 0.027215 -0.051039 -0.035707 0.09555 0.013766 0.11142 -0.070816 0.049156 -0.047721 -0.01105 -0.04692 0.089152 0.10103 -0.11056 0.02774 0.14766 -0.017161 0.088854 -0.12866 0.045924 0.0179 -0.0072789 0.11806 -0.041481 0.094611 -0.084253 -0.045635 0.070954 -0.18948 0.057358 0.037886 -0.096125 0.042107 0.10853 0.15964 0.022714 -0.066215 -0.021417 0.052111 -0.031247 3.8999e-06 -0.075486 0.30093 -0.016282 -0.1063 0.16704 -0.08891 -0.13203 0.124 -0.056143 0.047151 -0.029836 0.034209 -0.18273 -0.2326 -0.0037437 -0.12915 0.032641 
30625352 0.11424 0.22744 -0.12002 -0.022488 0.035923 0.042372 -0.14232 0.21599 0.11434 -0.047724 -0.014607 0.030583 0.030686 0.043307 0.092184 -0.062762 -0.028827 0.12956 0.096486 0.099691 0.0010446 -0.066107 0.30135 0.0084627 0.032583 0.056422 0.11333 0.0024155 -0.026246 -0.11474 0.071303 0.025713 0.058794 0.067118 0.18115 -0.090981 -0.26745 0.00051813 -0.0043516 -0.03036 -0.12374 0.080273 0.037952 -0.14487 -0.029832 0.072134 -0.042721 -0.012213 -0.02999 0.1158 -0.13393 0.12258 0.015647 0.088999 -0.04924 0.006339 0.035012 0.0071382 -0.081823 0.17567 0.039604 -0.070317 0.069616 -0.040938 0.15894 0.11755 0.055627 -0.062672 -0.060289 0.10352 -0.10555 0.13957 -0.042576 -0.11998 -0.073035 0.12029 0.078565 -0.019493 -0.0031876 0.070634 0.038639 0.035183 -0.047143 0.24473 0.27078 0.15423 -0.032272 0.20829 0.0077201 0.0061267 0.23068 -0.047549 -0.02374 -0.0086042 0.014819 -0.28418 -0.092301 0.0094805 -0.20449 -0.16968 
41426788 0.12773 0.12339 0.068991 -0.12737 0.013033 0.038225 0.12404 0.03397 0.03429 -0.00013421 0.013429 0.17533 0.050976 0.074403 -0.067438 -0.032786 0.044341 0.10504 0.011135 0.079026 0.036278 0.037272 0.11255 0.038271 0.02593 0.087053 -0.00082986 -0.079712 -0.12279 0.078076 -0.017232 -0.011316 0.072769 0.058174 -0.071229 0.052204 -0.075025 -0.14763 -0.14889 0.0086338 0.057451 0.0010402 0.020493 -0.18378 0.054082 0.2306 0.060315 0.059777 -0.037493 0.00097564 -0.087903 -0.035332 -0.049012 -0.013513 0.027261 -0.042775 0.061986 0.13306 0.21046 -0.012002 -0.091913 -0.10583 -0.14629 0.058415 0.093935 -0.059889 0.11018 0.019495 -0.07867 0.039486 -0.16333 0.073488 0.057971 -0.028624 0.28253 0.10274 0.061565 0.036719 0.032526 -0.018136 -0.25615 0.060565 0.13329 0.13951 -0.036166 0.29561 0.074573 -0.0058173 -0.21883 -0.1829 0.24969 -0.072577 0.098841 0.0019764 0.052906 -0.10386 -0.10251 0.054733 -0.093125 0.043262 
34887049 0.092261 0.016327 -0.088251 0.036644 0.093983 0.076425 0.061019 0.050129 -0.090682 -0.16106 0.003755 0.021837 -0.055304 -0.053784 -0.052211 -0.062784 -0.21399 0.047042 -0.097917 0.10064 -0.042422 -0.043355 0.21477 0.0090351 -0.039185 0.076604 0.031051 -0.091471 -0.0082215 0.022264 -0.16852 0.098618 -0.031067 -0.0016782 -0.0078504 -0.088123 -0.040476 -0.13668 -0.1663 -0.0098595 0.07857 -0.046623 0.13809 -0.055958 0.053658 0.28127 -0.049979 -0.10814 -0.14672 0.079843 0.023056 0.03201 -0.15966 -0.068453 0.20979 -0.17108 0.12506 0.033755 0.067889 0.017214 -0.040237 -0.19059 -0.067962 0.0028879 0.20974 -0.073487 -0.031353 -0.042133 0.001076 0.011412 -0.13161 0.24596 -0.079103 -0.058788 0.029876 0.12331 0.11644 -0.032891 0.085056 0.066334 -0.09353 -0.027976 0.02785 0.13452 0.038901 0.045591 -0.088397 0.24472 -0.15972 -0.13018 0.1413 -0.17312 -0.0085241 0.0075725 -0.0087562 -0.22371 -0.076663 -0.010642 -0.0060442 -0.017476 
33176233 0.053261 0.097761 -0.1121 0.034166 -0.028065 0.086791 -0.28904 0.083761 0.12018 0.034345 0.044778 0.1899 0.058426 -0.26069 0.03368 -0.13635 -0.11827 -0.079544 -0.08026 0.042337 0.023367 -0.13343 0.068573 -0.14219 -0.12419 0.0085054 -0.0019352 0.061891 -0.084383 0.0092589 -0.031071 0.14075 -0.16283 -0.14639 0.027953 -0.18775 0.012298 -0.041098 0.015049 -0.095625 -0.08551 0.042577 0.018662 -0.058049 0.17322 -0.026068 0.12367 0.18673 0.018072 0.05043 -0.065399 0.027893 0.075437 0.11008 0.020241 -0.08049 -0.014905 0.087889 0.013721 0.19312 0.04417 -0.022862 0.054121 -0.0086253 0.12419 0.062262 -0.11037 0.014794 0.059465 -0.11756 -0.057275 0.14822 -0.024787 0.00070179 0.040328 0.066299 0.10786 0.072062 -0.073273 -0.070376 -0.032432 -0.070293 -0.0038239 0.0057606 0.19253 -0.012849 -0.03899 0.017024 -0.18574 -0.065648 0.0081993 -0.063453 -0.038288 -0.040604 -0.0075962 0.10921 -0.17933 0.036473 0.053642 0.084417 
30183113 0.018758 0.048854 -0.09005 -0.059275 -0.080984 0.010282 -0.18872 0.1506 0.050604 0.012345 -0.0007673 0.14516 0.022449 -0.10627 0.045421 -0.10679 -0.17903 -0.16717 0.053013 0.16682 0.083975 -0.11676 0.144 -0.086313 -0.087929 0.051455 0.054753 0.080402 -0.023164 0.032699 -0.13228 -0.099412 -0.03235 -0.053471 0.060198 -0.15979 -0.15756 -0.025518 0.02307 -0.090741 -0.14707 -0.10406 0.054573 -0.16087 0.063583 0.073259 0.059319 0.11402 -0.090192 0.13029 0.039022 0.083687 0.13576 0.069676 0.014237 -0.18766 0.053122 0.094024 0.0030199 0.07885 0.080746 -0.17261 -0.031042 -0.18061 0.053478 0.035204 -0.004579 0.13166 0.016089 -0.066482 0.0021876 0.16263 -0.039063 -0.069772 0.020717 0.12757 0.16537 0.0024114 -0.12445 -0.15557 0.020234 -0.059291 -0.025277 0.17274 0.28759 -0.016391 -0.040325 0.05744 -0.17839 -0.17933 0.13083 -0.16089 0.068138 -0.10071 -0.0055585 -0.058398 -0.11663 0.025389 0.086022 0.044102 
34887040 0.09609 -0.029398 -0.11317 0.059555 0.01743 0.0088418 -0.057929 0.038662 -0.063126 -0.044782 -0.11561 0.06204 -0.058978 0.0097379 -0.12517 -0.036869 -0.2394 -0.022454 -0.042569 0.12761 -0.017499 -0.11817 0.10818 -0.041771 -0.097109 0.072082 0.089532 -0.08212 0.029183 -0.01594 -0.1694 0.023909 -0.038256 -0.031787 -0.063117 -0.12574 0.030652 0.012393 -0.1545 -0.069597 0.12304 -0.08867 0.10047 0.052924 0.050104 0.26431 -0.017836 -0.038921 -0.14271 0.067515 0.0050545 0.02939 -0.15101 -0.15611 0.17933 -0.23854 0.11367 0.04449 0.10884 -0.018351 -0.033675 -0.116 -0.10159 -0.093547 0.078935 -0.075445 0.042542 -0.056868 0.075608 -0.0058809 -0.070262 0.24431 -0.1741 0.0028296 0.031668 0.098304 0.19377 -0.089831 0.065216 0.061972 -0.06247 -0.079557 0.013798 0.081032 0.020886 0.036754 -0.099863 0.26159 -0.22605 -0.19917 0.15598 -0.22863 0.078452 0.012083 -0.024391 -0.18496 -0.1277 0.032939 0.037239 0.085955 
32731653 0.11937 0.19987 -0.097446 -0.0077171 0.1968 -0.037821 0.10337 -0.026319 0.074118 0.10636 0.045823 0.010163 0.050894 -0.032252 -0.13947 -0.052475 -0.0078206 0.058584 0.091913 -0.13877 -0.013994 0.02059 0.15357 0.041953 -0.024589 0.059578 0.020763 -0.086165 -0.051746 0.26733 0.12964 0.1354 0.10893 0.037085 0.0029544 -0.13187 -0.017611 0.10233 -0.068984 0.087268 -0.15661 -0.094355 0.038141 -0.12062 0.093768 -0.031985 0.06866 -0.081485 -0.16806 -0.056993 0.11512 -0.068386 -0.028978 0.007146 0.082285 -0.13269 -0.026167 0.027512 -0.023267 0.050909 0.011021 0.10152 -0.045102 0.085116 0.14704 0.069312 0.04597 -0.109 -0.041044 -0.060407 -0.099081 0.12686 -0.050911 -0.036088 -0.026871 -0.14293 0.015871 0.010232 0.039495 -0.014268 -0.21192 -0.051142 0.094191 0.12509 -0.095145 0.16239 0.087274 0.081738 -0.088857 -0.03986 0.0053979 -0.040613 -0.002353 -0.051491 0.092033 -0.077851 -0.080697 0.10942 -0.13873 -0.01663 
46874505 0.15598 0.16157 0.046507 -0.034417 0.028858 0.076872 0.21511 0.069395 0.092053 -0.05386 -0.017473 0.22095 0.037477 0.11215 -0.10664 0.017445 -0.046505 0.11372 0.04365 0.084066 0.090785 -0.009603 0.037873 0.0015267 -0.087449 0.12681 0.025046 -0.05037 -0.11568 -0.029857 -0.0094884 -0.06437 0.0055428 -0.018305 0.02319 -0.014038 -0.091019 -0.070522 -0.17123 0.082438 0.056529 -0.093604 0.027678 -0.071008 -0.0058396 0.1784 -0.053745 -0.036532 -0.097902 -0.07941 -0.1383 -0.083377 -0.016514 -0.04786 0.021826 -0.045305 0.10622 0.098424 0.11713 0.10291 -0.10816 -0.038825 -0.10561 0.13378 0.088947 -0.059012 0.082138 -0.040146 -0.1059 -0.0022276 -0.23758 0.056825 -0.02951 -0.10525 0.18719 0.16347 -0.024065 0.015229 0.10835 -0.011425 -0.28817 0.014154 0.12987 0.043308 -0.015979 0.16508 0.14608 0.083134 -0.091883 -0.10639 0.21008 -0.066582 0.11445 -0.091108 0.011587 -0.12452 -0.054124 -0.027145 -0.14739 0.054136 
46869595 0.061679 -0.04124 0.022218 0.064457 -0.038146 0.063747 -0.12094 0.011194 -0.11273 0.1006 -0.10832 0.086919 -0.028839 -0.053271 0.0082601 -0.11154 0.02549 -0.098024 0.012492 0.039696 0.084799 0.020656 0.054916 -0.06818 -0.17629 0.018718 0.090131 -0.061087 -0.1298 0.036498 -0.12034 -0.10942 0.066592 0.029783 -0.054081 -0.21921 -0.071698 -0.060549 -0.09339 0.058396 -0.1083 -0.11471 -0.037371 -0.13695 -0.0023968 -0.042415 -0.046833 -0.066273 -0.11752 -0.077599 0.072313 0.023459 -0.10056 0.057132 0.03317 -0.26383 -0.016942 0.067599 0.14799 0.060957 0.021512 -0.067461 -0.045116 -0.23833 -0.15313 -0.0080335 0.012085 0.11121 -0.081092 0.16226 -0.051523 0.089958 0.066047 0.0092243 0.17553 -0.013768 0.1325 0.13363 -0.05596 -0.075159 -0.19894 0.060182 0.049225 0.15357 0.073904 0.14098 -0.034961 -0.12555 -0.25197 -0.12493 0.15218 -0.23138 -0.021526 -0.090537 0.11832 0.07145 -0.033834 0.16635 0.10779 0.036087 
41664051 0.2264 -0.0091629 -0.033344 0.17386 0.18483 0.012247 0.17969 0.092745 -0.010116 0.067532 -0.15415 0.036706 0.063707 -0.075774 0.0093014 0.13836 0.10632 0.14898 0.23396 0.079557 0.054304 -0.019255 0.14294 -0.082066 -0.093357 0.035618 0.025088 0.053034 -0.0051055 0.054087 -0.13549 0.1741 0.099816 0.14008 0.066233 -0.019976 -0.14691 -0.050623 -0.030616 0.074388 -0.0014268 -0.11137 0.11574 -0.089097 0.050417 0.098404 0.026632 -0.014164 -0.19387 -0.076411 -0.060188 0.14269 -0.15294 -0.012378 0.072807 -0.10115 0.074435 0.011864 -0.072025 0.20551 0.030162 0.0091459 -0.08322 -0.029728 0.20699 -0.057812 -0.04042 -0.0050767 -0.087297 0.14982 -0.0073829 0.18998 -0.090076 -0.035886 0.089931 0.0071708 -0.0057333 0.014876 0.076047 -0.01418 -0.068626 -0.039336 0.10606 -0.026094 0.018022 0.010602 -0.085998 0.23462 0.1365 -0.0043602 0.31066 0.16917 -0.0071254 -0.10532 -0.030702 -0.14876 -0.045884 0.15786 -0.16435 -0.082926 
31016316 0.10298 -0.066302 -0.14723 0.078909 0.15278 0.010123 -0.043032 -0.064838 -0.095749 -0.097317 -0.079742 0.011612 -0.1051 -0.012168 -0.0029446 -0.047398 -0.18443 0.092087 -0.027348 -0.0070419 -0.021551 -0.055677 0.2418 0.014296 -0.018524 0.1083 0.037594 -0.15937 0.083093 0.085459 -0.14237 -0.057852 -0.095397 -0.064107 -0.055471 -0.017834 0.01305 -0.031418 -0.096331 -0.032924 0.13608 -0.11629 0.099371 0.16094 0.059584 0.29536 0.06354 -0.023107 -0.086557 0.03121 0.13334 0.013996 -0.12923 -0.06945 0.17935 -0.31791 0.11052 0.15888 0.0083304 -0.012 0.0052107 0.017818 -0.048278 -0.13625 0.023895 -0.12514 0.076703 -0.099875 0.073372 -0.066173 -0.033794 0.26513 -0.18621 0.033873 -0.025553 0.094289 0.19051 -0.018067 -0.019651 0.0032549 -0.18257 -0.060933 -0.012588 0.045891 0.12738 0.058211 -0.11802 0.19489 -0.15897 -0.15397 0.092093 -0.2209 0.10383 0.0058154 -0.021384 -0.12323 -0.19058 0.1161 0.060744 0.013374 
42653391 0.10071 0.077252 -0.12538 0.061163 0.095279 0.13325 -0.056125 0.12896 0.084351 0.061618 -0.073155 0.07797 -0.021935 0.0071325 -0.20836 -0.033251 -0.18455 -0.017802 0.11517 -0.13778 -0.038747 -0.0044966 0.0957 0.031119 -0.14364 0.016375 0.12621 -0.0020042 -0.17237 0.23619 0.031302 -0.2034 0.076626 0.10588 0.0038816 -0.16358 0.10758 0.016284 -0.038587 -0.15741 -0.17425 -0.05549 0.021516 0.11683 0.17857 0.16167 -0.016094 0.16546 -0.19813 -0.016591 -0.024359 0.11356 -0.047609 0.057105 -0.0050645 -0.27065 0.18894 -0.0036553 0.068847 -0.032873 0.16059 0.11442 -0.053023 0.054759 -0.017455 0.068766 0.13088 -0.018464 -0.086049 0.07175 -0.12461 0.28231 -0.049515 0.11055 0.075261 -0.053825 -0.086277 0.082439 0.0055858 -0.073617 -0.062232 0.031821 0.045514 0.24185 -0.068521 -0.059751 0.022397 -0.070519 -0.19354 -0.060708 0.0064428 -0.093314 0.10056 -0.10407 -0.064094 0.01882 0.13239 0.12017 0.03173 -0.020207 
46946811 0.10226 -0.13992 0.043036 0.25233 0.044622 0.073322 -0.052659 0.10626 0.052073 -0.074388 -0.12474 -0.10095 -0.014545 0.033403 0.057409 -0.021108 0.012039 0.061727 -0.071716 0.10589 0.077535 -0.20317 0.13007 0.10565 -0.10286 0.13827 0.0047571 -0.0037602 -0.12403 0.021418 0.10965 0.17389 -0.0060671 -0.06263 -0.049173 -0.093514 0.14587 -0.2242 -0.088005 0.12308 0.069918 0.056763 0.15615 -0.032792 -0.021273 0.19438 0.18831 -0.072598 0.011623 -0.11513 -0.0043042 0.049362 -0.043032 0.037749 0.1851 -0.06947 0.11865 0.0081778 0.046177 0.25047 -0.014731 -0.11533 -0.11559 -0.040903 0.1701 0.0099731 0.013588 0.01687 -0.11406 0.00089363 -0.2929 0.15833 -0.16238 -0.056959 0.037384 -0.082758 0.11734 0.21219 0.0026986 0.11892 -0.21759 0.10476 0.0040641 -0.036001 0.17141 0.24226 0.17682 0.15256 -0.010113 0.058762 0.087573 0.0095096 0.029907 -0.023838 0.043802 -0.084241 -0.11448 0.091363 0.0079581 0.10217 
41206320 -0.028203 -0.0054867 0.056625 0.18247 -0.024317 0.11309 -0.056843 0.14289 -0.069042 0.10223 -0.16239 0.0031553 -0.17597 0.044886 -0.011641 -0.026246 -0.14558 0.02081 0.070298 0.051391 0.13852 -0.21648 -0.025856 0.15778 -0.078768 0.29358 0.19797 0.072969 -0.14955 0.0026477 0.01384 -0.045902 -0.021884 -0.072797 0.049356 -0.18511 0.036285 -0.16841 0.00094602 -0.019034 0.057938 -0.026542 0.040219 -0.030434 0.062071 0.26307 0.046187 -0.077924 -0.080521 -0.028701 -0.0058252 0.041592 -0.066875 -0.046041 -0.049315 -0.29815 0.23416 0.062507 0.2285 0.083639 -0.016808 -0.097306 -0.11049 -0.081352 0.13034 -0.0056714 -0.014204 0.14953 -0.089763 -0.078027 -0.15278 0.17183 -0.099703 0.079804 -0.044722 -0.066993 -0.0034037 0.11738 -0.035391 0.075407 -0.13201 0.15151 0.042976 0.056603 0.19231 0.16838 0.045472 0.13621 -0.16255 -0.0041565 0.14171 -0.10758 0.040216 -0.098413 0.16587 -0.03768 -0.086169 0.18989 0.10696 0.064215 
41662759 0.26241 -0.078357 0.016078 -0.05273 -0.11189 0.10981 -0.054565 0.013571 -0.0060938 -0.031495 -0.034246 0.034696 -0.016724 -0.11377 0.014855 0.050296 -0.014553 0.099262 -0.11642 0.11806 0.088617 -0.1159 0.011506 0.12112 -0.050134 0.14618 0.0018313 -0.025916 -0.045837 -0.057632 0.17736 0.30667 0.035833 -0.11538 -0.13366 -0.26024 0.060663 -0.10009 -0.21448 -0.0072991 0.023068 -0.05175 0.021646 -0.0050947 -0.072912 0.074525 0.059075 -0.066472 -0.12557 -0.15893 0.10325 -0.00091126 0.033866 0.054635 0.13099 -0.13236 0.036334 0.18445 -0.009109 0.24119 -0.04223 -0.12218 0.011766 0.063766 0.16421 0.15769 -0.10682 -0.073489 -0.078844 0.0051431 -0.22395 0.16706 0.044107 -0.14529 0.10495 -0.11433 0.036728 0.12905 -0.075751 0.1007 -0.10138 0.1065 -0.10439 -0.080525 0.077382 0.21477 -0.018096 0.12524 0.033716 -0.040439 0.059371 0.045086 0.018694 0.033199 -0.068024 -0.17228 -0.061493 0.20331 0.085307 -0.10496 
47021853 0.11951 -0.048488 -0.040918 0.03931 -0.041287 0.062621 -0.23757 0.028281 -0.0090074 0.13659 -0.013991 0.14685 -0.015988 -0.016975 -0.08345 -0.063832 -0.034096 0.11011 0.1309 0.090344 0.070567 -0.23408 0.02982 -0.098222 -0.10921 0.039105 0.088737 0.011743 -0.092735 0.059323 -0.0071347 -0.031775 0.014735 0.11048 -0.14869 -0.1858 0.033568 -0.052567 -0.028537 0.0064402 -0.20224 -0.16411 0.029787 0.061333 0.084183 -0.094384 -0.030723 0.0038302 -0.063547 -0.054866 -0.090814 0.046647 -0.1318 -0.10724 0.0090564 -0.16004 0.054663 0.11618 0.11791 0.1918 -0.060298 0.11771 0.14023 -0.13756 0.049764 0.23236 -0.10038 0.037493 0.020517 0.084452 0.059119 0.13548 0.10024 -0.025135 0.11205 -0.15472 0.11864 -0.076137 -0.033274 -0.10336 -0.23031 0.0093667 0.0062414 -0.0057326 -0.051906 0.024414 -0.0013691 -0.09705 -0.038613 -0.027268 -0.034155 -0.097358 -0.12799 0.012461 0.0022322 -0.021087 0.023974 0.20458 0.054254 0.051504 
41204529 0.06093 -0.045376 -0.033211 0.069493 0.00066448 -0.029113 0.034314 0.065214 -0.11835 0.009207 -0.13726 -0.14663 -0.11739 0.038839 -0.030156 -0.15847 -0.2157 0.035749 -0.048818 0.06237 0.077313 -0.07919 0.16213 -0.059238 -0.15469 0.24972 0.076611 0.0014492 0.025303 0.091802 -0.1218 -0.04669 -0.060363 0.0037071 0.041887 -0.11357 0.01458 -0.10715 -0.083101 0.036231 -0.00033939 -0.039155 0.18056 0.063025 0.05494 0.31599 0.025319 0.042821 -0.10688 -0.040529 0.13034 0.14814 -0.13509 -0.10744 0.12266 -0.25215 0.19357 0.041389 0.18782 -0.0084395 0.064435 -0.022949 -0.11136 -0.16176 0.16144 0.048985 -0.023094 0.032969 -0.019781 0.10883 -0.20004 0.32854 -0.098951 0.064118 0.024453 0.074716 0.14903 0.018477 0.032726 0.026839 -0.16914 -0.036697 0.0048567 0.19107 0.10656 0.11011 -0.18631 0.16101 -0.14095 -0.087463 0.14427 -0.11734 0.045431 -0.091303 0.030141 -0.12675 -0.057353 -0.015587 -0.002754 -0.018058 
47226436 0.15631 0.094883 -0.14211 0.046126 0.14565 0.019806 0.079366 0.078757 -0.073851 -0.13166 0.097176 0.019174 0.027134 -0.15269 0.042458 -0.035078 -0.26828 0.1325 0.002667 0.031429 -0.047055 -0.065934 0.079232 0.064558 -0.10231 0.051317 -0.061489 -0.14695 -0.00093176 0.1175 -0.088087 0.11577 -0.046617 -0.061253 0.0029843 -0.192 -0.12036 -0.1107 -0.21108 0.061154 0.083158 0.0053036 -0.0010586 0.0077848 -0.13283 0.090818 -0.035221 -0.097989 -0.1381 0.030296 -0.0074631 0.03793 -0.13372 0.026336 0.15761 -0.088692 0.1484 0.012388 0.032936 0.099223 -0.066597 -0.096077 -0.093592 0.06515 0.21014 0.016362 -0.038954 -0.13487 -0.05896 0.1195 -0.16739 0.27009 -0.11506 -0.12112 0.11385 0.20297 0.092389 -0.066405 0.17689 0.091713 -0.18215 -0.098477 -0.0037511 0.0075321 -0.067372 0.11107 -0.078027 0.33967 -0.094505 -0.066597 0.099958 -0.12268 -0.0046647 0.028698 0.032258 -0.17864 -0.11337 0.053982 -0.033438 -0.033453 
39624557 0.056207 0.15218 -0.17373 0.076051 0.058492 0.17502 0.11978 0.014822 -0.03141 -0.083744 -0.13302 -0.033207 0.075499 -0.053414 0.026855 0.032883 -0.049421 0.17303 -0.07506 0.016859 -0.012833 0.028776 0.22089 0.10493 0.0051947 0.045167 -0.025065 -0.052562 -0.077114 0.087806 0.00099077 0.055125 0.042256 -0.083428 0.040523 -0.080407 -0.10183 -0.063272 -0.15644 0.017319 0.16239 0.069794 0.033889 0.00036361 0.051189 0.29826 0.07826 -0.044966 -0.10994 -0.08066 -0.10663 0.0076497 -0.08041 0.054082 0.084856 -0.15136 0.051152 -0.0055734 -0.07061 0.052516 0.019243 -0.01404 -0.027677 -0.050159 0.23328 -0.074291 0.09396 -0.043409 -0.050349 -0.045189 -0.25305 0.20441 -0.12232 0.01098 0.058171 0.053939 0.0029051 0.016213 0.11317 0.1526 -0.13038 -0.0074967 -0.050132 -0.0142 0.13038 0.057392 -0.055495 0.32669 0.018574 -0.073945 0.27683 -0.031153 0.048483 -0.036649 0.01533 -0.065192 -0.12918 0.11657 -0.10027 0.063586 
53469098 0.025886 -0.034206 -0.20642 0.024816 0.14374 0.087748 -0.065602 -0.069529 -0.1099 -0.031676 -0.087356 -0.039328 -0.18298 -0.042566 -0.034048 -0.030939 -0.18455 0.077662 -0.026616 -0.023014 -0.06056 -0.063954 0.17265 0.013767 -0.064479 0.065816 0.081716 -0.1258 0.0018901 0.10097 -0.12831 -0.05287 -0.028865 0.0076954 -0.032101 -0.085225 0.047312 -0.011722 -0.15401 0.011287 0.11541 -0.10511 0.076096 0.065888 0.066246 0.28955 0.059653 0.028291 -0.052552 0.058534 0.11356 0.0063983 -0.14755 -0.08254 0.22513 -0.34752 0.18409 0.025718 0.06604 -0.050706 0.016444 0.0036681 -0.10141 -0.16509 0.12945 -0.05438 0.085354 -0.018883 0.028645 0.0045001 -0.10937 0.32177 -0.14977 0.0077094 -0.0064713 0.10324 0.15 -0.064393 0.050721 -0.028777 -0.17643 -0.030182 -0.0031803 0.016212 0.10126 0.041799 -0.10337 0.17467 -0.11769 -0.1323 0.12002 -0.23338 0.077917 -0.040256 -0.0075377 -0.13542 -0.14219 0.060668 -0.017151 0.029983 
52953642 0.12882 0.080549 -0.25902 0.090283 0.20824 0.025044 0.014422 -0.055134 -0.055979 -0.18161 -0.025779 -0.0055023 -0.063674 -0.077014 0.015218 -0.046462 -0.08076 0.093872 -0.070626 -0.02324 -0.10381 -0.042412 0.16867 0.01854 -0.0030054 0.006277 -0.013017 -0.15229 -0.058477 0.066851 -0.042086 0.042728 -0.0010891 -0.0043542 0.031907 -0.021009 0.012518 -0.044461 -0.14973 0.0067525 0.19828 -0.019469 0.10855 0.083522 0.028876 0.1919 0.090217 0.004169 -0.013544 0.02483 0.057424 -0.054912 -0.102 0.068439 0.2746 -0.1803 0.093576 -0.019488 -0.028084 0.026856 -0.013425 -0.038347 -0.052667 0.011565 0.25715 -0.02734 0.10615 -0.088066 0.00020479 0.029192 -0.1965 0.26741 -0.1675 -0.072117 -0.019851 0.16376 0.13047 -0.0030927 -0.0009532 0.044223 -0.17002 -0.031007 0.030421 -0.11137 0.1077 0.027791 -0.10339 0.2452 -0.047273 -0.055106 0.082175 -0.14776 0.061255 -0.027898 -0.033731 -0.17066 -0.2617 -0.0046379 -0.093968 0.0082187 
49294377 0.1384 0.094801 -0.17122 0.10191 0.21899 0.050975 -0.0093391 -0.016288 -0.044436 -0.055305 0.037084 0.1537 0.07933 -0.058184 0.050985 0.0010861 -0.081626 0.030688 -0.019628 0.040065 0.034217 -0.031215 0.08959 -0.027686 -0.0016601 -0.11639 0.023067 -0.14324 0.0010427 0.088138 -0.048949 0.030096 -0.0044773 0.13878 0.0099435 -0.14598 -0.062356 -0.0038764 -0.14397 0.099534 0.11935 -0.028738 -0.0035354 -0.059441 -0.076941 0.13649 0.010806 -0.070556 0.023762 -0.015083 -0.025215 0.007728 -0.081431 0.10586 0.19513 -0.1239 -0.033034 0.075064 0.072436 0.0092369 -0.11731 0.0028141 -0.013081 0.065845 0.17589 -0.086697 0.10055 -0.13991 -0.071032 0.31964 -0.14595 0.15717 -0.075125 -0.030302 0.036582 0.11854 0.13057 -0.023444 -0.030054 0.086879 -0.13661 -0.092229 -0.0043554 -0.040294 0.11349 0.049408 -0.18038 0.14616 -0.036489 -0.005833 0.14298 -0.16137 0.031829 -0.063828 -0.061628 -0.1141 -0.17725 -0.073657 -0.12802 0.0042083 
35548673 0.0056626 0.051806 -0.14369 -0.13523 0.10111 -0.064085 -0.13793 0.10248 0.018462 0.056584 -0.046084 0.10464 0.020858 0.038754 0.04325 -0.061385 -0.11749 -0.051821 -0.0051032 0.082458 0.11234 0.028979 0.17995 -0.038159 -0.034706 -0.014165 0.14314 0.033705 -0.041661 0.11162 -0.065274 -0.12379 -0.0058098 0.021211 0.041931 -0.14353 -0.20617 0.0053031 -0.039521 0.04826 -0.0002538 -0.014355 0.02473 -0.16501 -0.01941 0.18329 0.003454 0.17767 -0.11512 0.11722 -0.021747 0.061292 0.049346 0.10317 0.021959 -0.26859 0.088489 0.11794 0.12279 0.05521 -0.063982 -0.073229 -0.098781 -0.13381 0.06776 -0.036881 0.12502 0.048189 -0.097343 -0.02637 -0.089772 0.10691 0.077499 0.051921 0.067151 0.021769 0.17551 0.01328 -0.05763 -0.18713 -0.017745 -0.041643 -0.0015287 0.083902 0.20791 0.03459 -0.081052 0.035703 -0.19361 -0.12064 0.23802 -0.18401 0.00044776 -0.010871 0.023741 -0.09018 -0.086578 0.049194 0.0558 0.0078146 
51705716 0.1 0.099792 -0.12367 0.080799 0.1957 0.04009 -0.061654 -0.061723 -0.036175 -0.018426 0.026373 0.15934 0.022416 -0.049908 0.027584 -0.0088556 -0.073941 -0.020756 0.0068363 0.034966 0.025871 -0.074518 0.12635 -0.029631 -0.035053 -0.092351 0.12421 -0.12444 0.027085 0.080069 -0.083603 0.027037 -0.023374 0.12302 -0.012364 -0.14138 -0.10526 -0.02682 -0.14608 0.079118 0.12437 -0.11537 -0.028353 -0.093587 -0.052606 0.13733 -0.0098863 -0.031836 -0.040248 0.027163 0.0011951 0.01954 -0.085567 0.078713 0.19006 -0.19148 0.010747 0.04249 0.069873 -0.051122 -0.095166 -0.043587 -0.013524 0.035515 0.15917 -0.072641 0.12075 -0.09597 0.0203 0.21502 -0.10232 0.19862 -0.093969 -0.0306 0.045278 0.096321 0.13557 -0.050261 -0.018723 0.019656 -0.15921 -0.092895 -0.047674 0.030692 0.075451 0.062701 -0.20214 0.10102 -0.067246 0.010871 0.14601 -0.20277 0.01043 -0.065819 -0.014846 -0.070465 -0.13902 -0.034335 -0.12081 -0.016798 
47408648 0.032392 0.064631 -0.15393 0.064511 0.024488 0.024308 -0.25529 0.022425 0.1152 0.089008 0.090009 0.11726 0.029404 -0.12389 0.097503 -0.010509 -0.11495 -0.055762 -0.035264 0.095263 0.12401 -0.19432 0.15102 -0.12583 -0.13345 0.063511 0.046783 -0.011607 -0.12739 0.020818 0.044277 0.14318 -0.14392 -0.057562 0.061828 -0.21155 -0.083735 -0.085817 0.023838 -0.075922 -0.10528 0.044986 0.052256 -0.029757 0.091449 0.015642 0.077733 0.13461 0.030351 0.10994 -0.041383 0.077471 0.054 0.15136 -0.028914 -0.053435 0.099813 0.11201 0.00010016 0.17484 -0.057715 0.01317 0.0050607 -0.027229 0.2515 0.18087 -0.021491 -0.0027905 0.022905 -0.14141 -0.16149 0.11294 0.062196 0.011875 0.07551 0.085899 0.21505 -0.088204 -0.083733 -0.089685 -0.09748 0.018386 -0.015403 -0.071007 0.1468 0.02748 -0.044606 0.059616 -0.15626 -0.093596 0.057257 -0.07562 -0.067776 0.0086236 0.073765 -0.050749 -0.18491 0.039511 -0.007701 0.094546 
48896677 0.20916 -0.01523 -0.042903 0.057564 0.19574 0.14863 0.070971 0.031596 -0.062408 -0.074514 0.12664 -0.085707 0.043355 -0.15759 0.017537 -0.0070266 -0.16533 0.19793 -0.10238 0.0013772 -0.11277 0.011379 0.14606 0.037901 -0.083914 0.068046 0.016241 -0.058625 -0.026685 0.057004 0.035187 0.21302 -0.00076885 -0.077508 0.041994 -0.21395 -0.088865 -0.21288 -0.037658 0.086607 0.087509 0.0014936 0.0023961 0.029843 0.059524 0.053349 0.15517 -0.064305 -0.14493 -0.07312 0.010321 0.023786 -0.1381 0.055686 0.24068 -0.1748 0.022638 -0.033135 -0.089806 0.08461 0.036617 -0.12897 -0.11557 -0.07424 0.20172 -0.018611 -0.0014136 -0.19083 -0.011403 0.065786 -0.14716 0.24802 -0.1672 -0.084474 0.055593 0.044497 0.027452 0.003899 0.10764 0.037472 -0.09152 -0.15153 0.043267 -0.0095161 0.023245 0.14562 -0.13311 0.25267 0.003196 0.038099 0.22865 -0.032011 -0.075884 0.041992 0.037235 -0.22446 0.063218 0.039848 -0.073181 -8.5427e-05 
41623967 0.11746 -0.01873 0.006231 -0.13147 -0.076486 -0.035876 -0.31581 0.10384 0.0084178 0.10659 0.080887 0.18162 0.12241 -0.031512 0.016491 -0.041695 -0.10356 -0.047906 0.13405 0.17023 0.11141 -0.10445 0.13377 -0.10812 -0.038907 0.097858 -0.083736 0.04636 -0.089523 0.10216 -0.060661 0.0084584 -0.013143 0.071328 0.033811 -0.13277 0.0059565 0.048889 -0.043775 -0.056889 -0.073833 -0.016555 0.059289 -0.21483 0.13128 0.1061 -0.043105 0.15469 -0.023135 0.052306 -0.051639 0.099313 -0.0019264 0.022813 -0.080136 -0.19188 -0.026858 0.22262 0.12197 0.076006 -0.088333 0.011473 -0.022712 -0.23536 0.063511 0.22418 -0.029269 -0.0042816 0.013659 0.046151 -0.0068679 0.065672 0.1156 0.035649 0.18164 -0.065868 0.22902 -0.022971 -0.07208 -0.066963 -0.015312 0.017909 0.16376 -0.0010686 0.15529 0.075318 -0.060872 -0.071884 -0.21057 -0.11485 0.039537 -0.23656 -0.13109 0.053207 0.00038904 -0.10965 -0.096143 0.082574 0.0047503 0.099955 
47285226 0.24998 -0.02153 -0.11547 0.085368 -0.061281 0.15887 -0.42809 -0.0292 0.040787 0.0068483 -0.097725 0.10886 0.075928 -0.18023 -0.099778 -0.036108 0.06384 0.081965 0.06455 -0.026612 0.0056709 -0.25606 0.0092696 -0.053212 -0.11559 0.068292 0.045388 0.011245 -0.14608 0.013339 0.023259 -0.17926 -0.016741 0.11149 -0.085726 -0.26977 0.068472 -0.055802 0.01699 0.036309 -0.13144 -0.095554 -0.03483 0.030952 0.20685 -0.12838 -0.056637 0.075231 -0.054074 -0.092032 -0.050493 0.051327 0.018382 -0.1618 0.02225 -0.2631 0.053481 0.047931 0.053961 0.11067 0.013553 0.1993 0.1375 -0.099543 -0.0038315 0.11874 -0.088563 0.0033208 0.030132 -0.021009 0.046097 0.1626 0.055679 -0.146 0.1318 -0.12574 0.20891 -0.022968 0.070852 -0.10655 -0.045859 -0.14831 -0.032072 0.019899 0.053138 -0.019347 -0.015825 0.010657 -0.032728 -0.16054 -0.030605 0.00048172 -0.10168 -0.013351 -0.075546 0.046452 0.10506 0.094027 0.12216 0.087266 
46658681 0.032825 0.13815 -0.19993 0.081336 0.1683 0.13631 -0.074106 0.042417 -0.025545 -0.056732 0.018893 0.17615 0.014338 -0.0074949 -0.16951 -0.049181 -0.028238 -0.09734 0.14174 -0.082296 0.00019745 -0.13814 0.13379 0.018846 -0.054346 0.091419 0.1574 -0.082151 -0.17134 0.060113 0.023533 -0.21699 0.15818 0.11658 -0.10305 -0.1535 0.14078 0.070382 -0.015519 -0.056019 -0.079745 -0.14314 -0.082238 0.085486 0.15371 0.24695 -0.0029585 0.10728 -0.06165 0.12229 0.082101 0.028873 -0.037213 0.052505 0.016419 -0.28182 0.2784 0.010124 0.05167 0.068878 0.061395 0.1888 -0.018941 0.01289 0.025169 0.0056425 0.12408 0.030032 0.0081243 0.17312 -0.14939 0.11082 -0.011595 -0.0027069 0.1011 -0.091249 -0.070089 -0.0039548 -0.097936 -0.084134 -0.057654 0.03042 -0.036933 0.26217 -0.053492 0.082722 0.002862 -0.028398 -0.16978 -0.088387 0.17772 -0.12307 0.05687 -0.046351 0.033802 -0.087447 0.084771 0.15149 0.0091117 -0.059193 
32277907 0.11987 -0.016305 -0.15136 0.024894 0.042858 -0.12346 -0.2736 0.17102 0.094837 -0.029823 0.046967 0.11122 0.12788 -0.11879 0.17935 0.068597 -0.09319 -0.00061945 -0.047277 0.13822 0.077343 -0.10881 0.1776 -0.10116 0.025177 -0.0054198 -0.07168 -0.01733 -0.097116 0.038525 0.11237 0.035554 -0.12961 -0.0066797 0.063551 -0.035604 0.02079 -0.10819 -0.010534 -0.0098881 -0.094367 0.16305 0.10369 0.059467 0.10238 -0.038862 0.11248 0.054182 0.064562 0.057832 -0.0065951 0.049987 0.0078936 0.073367 0.014904 -0.016611 0.14832 0.029419 0.022138 0.33494 -0.016437 0.033471 -0.078919 -0.13547 0.14096 0.13368 -0.049553 -0.056382 -0.08792 -0.058894 -0.085635 0.093618 -0.026103 -0.039885 -0.078388 0.14322 0.1664 -0.12375 -0.17203 0.043423 -0.080985 -0.026747 0.0062166 -0.023735 0.32426 0.030675 -0.051411 0.047754 -0.05317 -0.10807 0.08427 -0.20018 0.037081 -0.045085 -0.010095 -0.15944 -0.16843 -0.054052 -0.022275 0.045852 
46874236 0.062623 -0.11557 0.070268 0.1221 -0.05809 0.081398 -0.14054 0.024321 -0.12611 0.10601 -0.092823 -0.029343 -0.19257 -0.12398 -0.06451 0.044209 -0.091263 0.055618 -0.0034144 0.061332 0.088668 -0.15378 0.028999 0.064106 -0.15125 0.213 0.098223 0.057785 -0.10101 0.032424 0.13385 0.13382 -0.12188 -0.025885 -0.068759 -0.16774 0.096884 -0.038642 0.0032554 0.01466 -0.080247 -0.0038018 0.10653 0.076744 0.13876 0.027922 0.13899 0.059788 -0.18221 -0.041095 0.10822 0.057118 -0.10299 -0.12061 0.075704 -0.32656 0.092571 0.13924 0.17527 0.1432 0.027124 0.014742 -0.07244 -0.15663 0.10168 0.27511 -0.097842 -0.080279 -0.039287 -0.011474 -0.0067396 0.19693 -0.049372 0.052181 0.078231 -0.18226 0.034854 0.078121 0.035205 0.031334 -0.13322 0.12121 -0.090531 -0.061438 0.039125 0.15597 -0.050417 0.016698 -0.030389 -0.037532 0.01959 -0.16635 -0.03455 0.011723 -0.01199 -0.0065466 -0.15599 0.31206 0.11472 0.14096 
46858253 0.04092 0.036522 -0.092628 -0.077858 0.0667 -0.045409 0.021527 0.02485 -0.089721 -0.07806 0.0057625 0.014066 -0.045237 -0.1209 -0.066663 -0.085677 -0.25041 0.085439 0.093894 0.068213 0.015289 -0.077781 0.044661 -0.0090475 -0.22427 0.18129 0.010622 -0.045669 0.038507 0.19602 -0.087062 0.024458 0.029932 -0.089393 -0.020296 -0.17962 -0.015897 -0.14326 -0.24041 -0.04649 -0.032961 -0.16582 0.07665 -0.05917 -0.042266 0.1982 -0.082769 -0.053627 -0.1251 0.039835 0.11101 0.08936 -0.083907 -0.075554 0.031264 -0.21812 0.21921 -0.024009 0.14119 -0.0090209 -0.0034799 -0.046199 -0.22849 -0.13727 0.12028 -0.022243 -0.043582 0.023327 -0.032226 0.11806 -0.18137 0.41648 -0.017242 -0.021776 0.098773 0.20737 0.077668 -0.12954 0.20345 0.044213 -0.10781 -0.1141 -0.019944 0.12873 -0.014298 0.17226 -0.12649 0.21068 -0.1315 -0.20477 0.13322 -0.17025 0.036613 0.024867 0.14152 -0.037271 -0.057027 0.13562 0.052464 0.025258 
55810916 0.14531 -0.13956 -0.028779 0.1829 0.12023 0.088143 0.057491 0.11839 -0.093159 -0.10415 -0.037861 0.048805 0.032887 -0.096009 -0.048152 -0.092862 -0.10762 0.055502 -0.17281 0.028711 0.040294 -0.024407 0.014322 0.066123 0.043343 0.08853 0.0059184 -0.037865 0.021141 -0.028574 -0.022846 0.10033 -0.097269 -0.046834 0.0019846 -0.15656 0.049304 -0.14597 -0.024282 0.026505 0.13778 -0.06776 0.0081814 0.034282 -0.072194 0.12857 0.15922 0.0074954 -0.11672 -0.092868 -0.036903 -0.046092 -0.12129 -0.059908 0.2155 -0.0028752 0.101 -0.005132 0.13404 0.093598 -0.010304 -0.011229 -0.043571 -0.12395 0.20552 0.054354 -0.063849 -0.1355 -0.15365 0.0045402 -0.092132 0.34959 -0.13262 0.002589 -0.0092567 -0.041651 0.10323 0.054872 0.015968 0.1129 -0.07758 -0.10567 0.0040537 -0.0078059 0.24139 0.1422 -0.092839 0.26021 -0.038852 -0.028258 0.20276 -0.016865 0.075576 0.037834 0.086355 -0.29519 -0.1459 -0.08978 0.028015 0.15343 
46880474 -0.056486 0.078142 0.068648 0.015708 0.020155 -0.10395 -0.33359 0.16472 0.11793 0.1031 -0.0079616 0.13692 0.097042 -0.13272 0.08843 0.032139 -0.20053 -0.086921 0.13085 0.19429 0.15723 -0.24332 0.16661 -0.074488 -0.033558 0.026922 -0.014121 0.031967 -0.015607 0.013851 0.0068222 -0.056946 -0.13596 -0.033501 0.051149 -0.26185 -0.025084 -0.02609 0.015368 -0.081371 -0.19309 -0.040395 0.05026 -0.050223 0.021305 0.026138 0.052718 0.19169 -0.034001 0.11546 -0.015345 0.10621 -0.010843 0.0022089 -0.043195 -0.21009 0.083796 0.1056 0.15063 0.21523 -0.071768 -0.16629 -0.039195 -0.16988 0.14023 0.11187 -0.092384 0.015274 0.014965 -0.079638 -0.047328 0.22017 -0.11509 -0.080044 -0.08624 0.098927 0.16491 -0.15135 -0.044511 -0.10683 -0.0095317 -0.023291 0.011308 0.025075 0.14471 -0.016198 -0.048161 0.058376 -0.16136 -0.18542 0.077367 -0.14031 -0.059319 -0.026638 0.023225 -0.1056 -0.065794 0.014556 0.10803 0.11239 
33176280 0.056014 0.044243 -0.16082 0.012638 0.016328 -0.029858 -0.22921 0.11289 0.11335 0.00057345 -0.037437 0.10294 0.060377 -0.1594 0.070411 -0.015749 -0.13686 -0.10423 -0.015943 0.10533 0.068002 -0.15953 0.1184 -0.16171 -0.058908 0.024057 0.0015637 -0.015892 -0.11217 0.047687 0.035733 0.054975 -0.10836 -0.072722 0.049435 -0.13558 0.012471 -0.10482 0.010052 -0.066289 -0.036097 0.046005 0.061037 -0.0392 0.11881 0.060662 0.14369 0.11316 0.035116 0.11005 -0.077179 0.021977 -0.0031585 0.11253 -0.023792 -0.086785 0.068102 0.065709 -0.053192 0.18146 -0.020211 0.048228 -0.0026451 -0.050389 0.14787 0.17549 0.041458 0.019257 0.027422 -0.086809 -0.11385 0.084685 0.038559 0.039383 0.021841 0.053371 0.19395 0.010666 -0.087395 -0.08624 -0.034023 0.028167 0.00090711 -0.059981 0.17059 0.053659 -0.022264 0.032635 -0.11636 -0.13385 0.08105 -0.15351 0.05243 -0.011779 0.042131 -0.087959 -0.16927 0.069075 0.064475 0.12796 
41204460 0.058726 -0.029544 -0.052965 0.063292 -0.0053532 0.060399 -0.11801 0.028974 -0.12523 -0.12007 -0.11064 -0.01542 -0.079777 0.036218 -0.097228 0.045305 -0.32276 0.11191 0.0073832 0.03816 -0.043689 -0.1203 0.12282 -0.005987 -0.26097 0.18065 0.099246 0.055973 0.034915 -0.0095697 -0.11234 -0.079633 0.0091678 0.0065027 0.071534 -0.090682 -0.032804 -0.19138 -0.25934 0.02972 0.027825 -0.096983 0.17188 -0.111 0.0068511 0.31549 -0.088366 -0.066885 -0.10338 0.057247 0.055034 -0.089109 -0.15822 -0.14364 0.075318 -0.25562 0.23131 -0.014015 0.19564 -0.013905 -0.0081949 0.063254 -0.15636 -0.26929 0.13308 -0.10906 0.06217 0.089961 0.034535 0.075491 -0.1615 0.28984 0.0019045 0.1332 -0.032355 0.14821 0.056489 0.078719 0.16012 0.046145 -0.15792 -0.074836 -0.042491 0.16968 0.097727 0.13785 -0.079466 0.1502 -0.21324 -0.13331 0.072416 -0.14776 0.062862 -0.043393 0.15741 -0.17602 -0.016438 0.090367 -0.0051529 0.096813 
40733138 0.046577 0.084637 -0.10407 0.13348 0.048078 0.13996 -0.14721 -0.064103 -0.11731 -0.068013 0.15995 0.11508 0.03762 -0.024992 -0.13433 -0.090411 0.055725 -0.060699 0.044636 -0.12708 -0.10296 -0.079552 0.063174 -0.047274 0.018452 0.089298 0.074024 0.040692 -0.28188 0.22121 -0.028029 -0.059191 0.10334 0.02792 -0.067471 -0.10737 0.037769 0.077336 0.036994 -0.12642 -0.21617 -0.18482 0.0014596 -0.042979 0.1258 -0.051601 -0.016352 -0.039242 -0.085889 -0.027616 -0.025636 0.07521 0.038952 0.048162 -0.0056673 -0.28224 0.086098 0.04415 0.15707 0.084655 0.13872 0.079042 0.14574 -0.045964 0.023332 -0.15525 -0.053749 -0.035435 0.064218 0.077242 0.020409 -0.0028586 -0.06316 0.024422 -0.1139 -0.027557 0.00016233 0.031061 -0.12334 -0.18313 -0.10005 0.053129 0.12641 0.25747 -0.050892 0.021694 0.10128 -0.0090279 -0.095167 0.027006 -0.0064983 -0.11003 -0.0036695 -0.11385 0.13496 -0.06861 -0.1114 0.18131 -0.10146 -0.12658 
47906908 0.2107 0.096899 -0.35135 -0.0065367 0.26519 -0.015279 -0.090968 0.091559 0.12816 -0.088673 -0.079196 0.11154 0.047418 -0.14852 -0.010704 -0.089727 -0.052565 0.076899 0.064408 0.032916 0.011078 -0.032764 0.24498 -0.019785 -0.23395 -0.015243 0.088626 -0.081435 -0.13797 0.064233 0.11499 -0.10399 0.065769 0.11827 0.080385 -0.14884 -0.033498 0.087285 -0.085058 0.24808 0.084227 -0.0010463 -0.11558 -0.1138 0.13393 0.11551 -0.018082 0.10826 0.017722 0.057688 0.097972 -0.019771 0.0006299 0.018585 0.065745 -0.22955 0.060379 0.02088 0.015935 0.05602 -0.13373 0.19753 -0.051433 0.11099 -0.05036 -0.071387 0.050589 -0.039758 -0.095952 0.1816 -0.22331 0.058001 -0.060008 -0.076244 0.10528 0.073343 -0.011238 -0.10414 -0.048333 0.021852 -0.016682 -0.009015 -0.019684 -0.056896 0.27126 -0.050883 0.034437 0.067815 0.0011185 -0.09494 0.082584 -0.11117 0.032603 -0.0098085 0.14155 -0.082043 0.0051036 0.043769 -0.075417 -0.082148 
46869618 0.095231 0.0031933 -0.041947 0.013473 -0.11438 0.1808 -0.074003 0.026576 0.042251 -0.025067 -0.063457 0.0045586 -0.067526 -0.2526 -0.012264 0.14124 -0.015325 0.093793 -0.13868 0.10072 0.14442 -0.20121 0.18355 0.021345 -0.067722 0.16751 -0.092965 0.01439 -0.090124 -0.0041555 0.12982 0.20736 -0.012898 0.028289 -0.11422 -0.031348 0.05353 -0.06745 -0.026517 -0.12643 -0.072134 -0.04212 0.1243 0.1069 0.11863 0.076655 0.088159 -0.11776 -0.001398 -0.02174 0.057927 0.058512 -0.05421 -0.034978 0.066949 -0.28639 0.023578 0.16282 0.18325 0.19802 -0.095147 -0.019324 0.1405 0.028116 0.19872 0.13324 -0.030515 0.050342 0.0071408 -0.045727 -0.17625 0.11576 0.023065 -0.13275 0.025112 -0.20178 0.095504 -0.0052405 -0.043808 0.13648 -0.18781 0.19511 -0.055002 -0.11303 0.036725 0.23984 0.057164 0.054376 -0.0065935 -0.054246 -0.076203 -0.067008 0.069949 -0.0444 -0.033117 0.0080101 -0.10247 0.17906 0.1401 0.088554 
30183094 0.036323 0.097419 -0.15458 -0.042311 0.044631 -0.043632 -0.18825 0.17766 0.056977 -0.021556 0.052658 0.15637 0.093217 -0.16706 0.088588 -0.086131 -0.1402 -0.10146 -0.038232 0.20312 0.157 -0.094834 0.13419 -0.05709 -0.061832 -0.072291 0.06894 -0.019241 -0.10595 0.045975 -0.032523 -0.013522 -0.082531 -0.0030635 0.017383 -0.11404 -0.23257 -0.060699 0.045992 0.05763 -0.047051 0.0029444 0.025494 -0.095336 0.078036 0.033719 0.06342 0.11778 -0.078156 0.065852 -0.010628 -0.022308 0.098799 0.127 0.045837 -0.12509 0.051194 0.14302 0.00083279 0.15277 -0.033276 -0.11179 -0.029051 -0.10316 0.19016 0.05835 0.051772 0.0063313 -0.044859 -0.00576 -0.12572 0.093558 0.017477 -0.037559 0.048777 0.10603 0.17567 -0.013555 -0.15043 -0.12188 0.056431 -0.043936 -0.017194 -0.079932 0.22373 0.020417 -0.0763 0.055652 -0.13977 -0.10194 0.076627 -0.14239 0.045721 -0.027039 0.039266 -0.070722 -0.18231 -0.071574 0.049093 0.072596 
29063128 0.14321 0.045736 0.076946 0.15541 -0.0083947 0.029 -0.01227 0.089911 -0.066465 -0.018277 -0.06051 -0.035091 -0.10321 -0.13897 -0.15637 -0.19747 -0.2383 0.17522 -0.035536 0.022023 -0.018834 -0.074205 0.041558 -0.10611 -0.22893 0.28056 0.12505 0.063498 0.056678 0.17311 -0.067284 -0.04557 -0.0876 -0.082264 0.060192 -0.0027179 -0.0017338 -0.19736 -0.17841 -0.022294 0.0095981 -0.0059068 0.093732 -0.14883 0.042136 0.21723 -0.0749 -0.032735 -0.2232 -0.070634 0.10577 0.11532 -0.062873 -0.093695 0.086717 -0.17283 0.14579 -0.0063632 0.1268 -0.036704 0.1363 -0.020443 -0.11291 -0.18759 0.19202 -0.086679 -0.12146 -0.022293 -0.01531 0.039737 -0.10304 0.28754 -0.11623 0.07668 0.034715 -0.0081707 0.082544 0.066969 0.11758 0.011198 -0.09234 -0.11328 -0.14383 0.12928 0.12381 0.097396 -0.071084 0.11365 -0.17279 -0.043449 0.095295 -0.10636 0.15369 -0.09599 0.095183 -0.083659 -0.038307 -0.018779 -0.0003712 0.057433 
46858676 0.15097 -0.14109 0.13985 0.15714 -0.013426 0.30425 -0.12281 0.093895 0.037768 0.038246 0.029407 -0.06529 -0.045642 -0.19973 0.10892 -0.12513 -0.052062 0.10927 -0.088632 0.11189 0.073077 -0.17965 -0.095097 0.0032459 -0.069143 0.089346 0.06368 0.04721 -0.11889 0.055067 0.053116 0.19695 -0.083516 -0.067437 -0.077009 -0.052135 0.1633 -0.19494 -0.021088 0.079545 -0.029752 0.065526 0.05667 -0.010046 0.13975 0.0057578 0.199 0.047456 -0.095057 -0.15986 0.040816 -0.013894 -0.096986 -0.095631 0.049654 -0.19855 0.064007 0.089974 0.10956 0.15572 0.059654 -0.14375 -0.050035 -0.086329 0.074307 -0.08768 -0.17562 -0.057375 -0.079947 -0.040455 -0.060054 0.15055 -0.12494 -0.092291 -0.017355 -0.16119 -0.032664 0.24968 -0.11297 0.073354 -0.10306 0.0018962 -0.10311 0.0016469 0.093519 0.30628 -0.023186 0.10804 -0.19653 0.0030757 0.030722 -0.0023317 0.026823 -0.027946 0.012349 -0.079001 -0.077015 0.13473 0.15824 0.062463 
46871837 0.14663 -0.073933 -0.083309 -0.14398 0.053154 0.06487 0.054693 0.020747 -0.054709 -0.21154 -0.16189 0.038261 0.0087577 -0.16221 -0.096498 -0.052217 -0.31777 -0.0096726 -0.088165 -0.013107 0.095772 0.013188 0.12699 0.034325 -0.18117 0.17701 0.063729 -0.019704 -0.016316 0.037092 -0.32993 -0.039093 0.0045887 -0.037203 0.013594 -0.031152 -0.029411 -0.18138 -0.19051 -0.12868 0.010556 -0.23464 0.18953 -0.079634 0.00017468 0.28104 -0.075978 -0.077457 -0.1197 0.017931 0.051956 -0.00052008 -0.11272 -0.22265 0.057005 -0.16109 0.22663 0.045944 0.22383 -0.082373 -0.023987 -0.035197 -0.088615 -0.14222 0.084017 -0.12735 -0.047068 0.16013 0.029414 0.079355 -0.17203 0.32674 -0.056994 0.020767 -0.00083531 0.057409 -0.0054101 -0.065654 0.081064 0.050299 -0.085626 -0.093965 -0.031561 0.15722 0.10611 0.10777 -0.16308 0.18586 -0.18259 -0.19025 0.01268 -0.24284 0.056982 -0.058905 0.047847 -0.10907 -0.080902 0.058966 0.034462 0.059374 
34822928 0.072098 0.099003 -0.12107 0.09334 0.20385 0.065642 -0.033502 -0.042417 -0.032243 -0.051871 0.038053 0.16006 0.0012785 -0.093282 0.007286 0.085302 -0.098336 0.035068 -0.047706 0.022129 0.039229 0.049381 0.24163 0.014859 -0.028127 -0.10908 0.046575 -0.08669 -0.01759 0.072095 -0.10418 -0.027206 -0.025051 0.032905 -0.026631 -0.18641 -0.025933 -0.077822 -0.092563 0.030699 0.1138 -0.082939 0.050682 -0.039421 -0.082919 0.10376 -0.015708 -0.0399 -0.03927 -0.073788 -0.079803 -0.057568 -0.071271 0.12669 0.21362 -0.0097165 -0.042884 0.071256 0.097959 -0.0019369 -0.030949 -0.022949 -0.098136 0.027651 0.29744 -0.14264 0.062275 -0.17326 0.030177 0.12097 -0.11766 0.1459 -0.080295 -0.036859 0.030602 0.14398 0.19857 0.042639 0.056928 0.069631 -0.15112 -0.16703 -0.046493 -0.093117 0.13191 0.03665 -0.088904 0.23218 0.0059008 -0.081274 0.18221 -0.16554 -0.0029419 -0.04114 -0.12752 -0.18858 -0.2479 -0.1215 -0.1255 0.088045 
33427095 0.11212 0.084025 -0.098152 0.12998 0.10005 0.14018 0.17375 0.018315 -0.17633 -0.04287 0.014086 -0.04154 -0.022695 0.029763 0.089569 0.013629 -0.11143 0.074742 -0.14139 -0.072158 0.028529 -0.11065 0.10504 0.025185 -0.0083949 0.18086 0.072325 -0.061241 -0.065061 0.060823 -0.011349 0.080369 -0.042175 0.0061664 -0.07194 -0.21821 0.019993 -0.27043 -0.17847 -0.048484 0.20877 0.021669 0.018188 -0.075268 0.089514 0.19835 0.091389 -0.020581 -0.14461 -0.038233 -0.010825 -0.032395 -0.052679 -0.072224 0.17329 -0.15719 0.11386 -0.073697 0.031923 -0.062384 0.031216 -0.10485 -0.11326 -0.10536 0.24619 0.012494 -0.096321 -0.050275 -0.082598 -0.0053995 -0.080999 0.38988 -0.10236 0.012091 0.080596 0.036012 0.20439 -0.0061675 -0.00051986 0.13377 -0.064118 -0.015261 0.088781 -0.023922 0.11149 0.11766 -0.061951 0.14281 -0.050158 -0.091285 0.25342 -0.11068 0.20072 0.051652 0.062826 -0.12192 -0.12828 0.0056386 -0.0066065 0.0086593 
33426159 0.087982 -0.14558 -0.01537 0.079534 0.024003 0.10745 -0.027253 0.10502 -0.10004 -0.0008865 -0.062044 -0.032302 -0.13188 -0.074008 -0.040828 -0.15452 -0.13284 -0.026719 -0.02633 -0.0018769 0.00010762 -0.082611 -0.0099316 0.024321 -0.10262 0.11352 0.13692 0.026137 -0.03668 0.050796 -0.11048 -0.034151 -0.060405 -0.014426 -0.012255 -0.070625 0.024739 -0.21741 -0.041468 0.04071 0.078671 -0.087852 0.026248 0.056679 0.057285 0.16421 0.16664 0.034035 -0.16623 -0.024981 0.046668 -0.033995 -0.15751 -0.18714 0.15918 -0.22425 0.23007 -0.00099328 0.11554 0.016095 -0.067804 -0.086482 -0.15257 -0.22928 0.13639 -0.019344 -0.0042964 -0.019761 -0.096713 -0.055851 0.042772 0.37007 -0.13616 0.046151 -0.059056 -0.11966 0.10906 0.025417 0.051654 -0.017537 -0.030002 -0.02435 -0.052937 0.11503 0.11076 0.085871 -0.025633 0.21256 -0.17579 -0.12702 0.24047 -0.1767 0.13498 -0.054799 0.0034002 -0.1737 -0.072753 -0.050481 0.13478 0.10819 
46864635 0.16687 -0.094669 0.089916 0.094001 0.0098311 0.074053 0.13225 0.11437 -0.031494 0.0063165 -0.00053131 -0.015347 0.014491 -0.18525 0.034523 -0.0048895 0.018826 0.21929 -0.055558 0.074457 0.15514 -0.058139 0.11281 0.11518 0.029639 0.18528 0.056405 -0.12249 -0.04062 0.05907 0.17598 0.24181 -0.15394 -0.00058361 -0.0095267 -0.20784 -0.033316 -0.15112 -0.080391 0.073326 0.16751 0.0087007 0.034622 0.022186 0.075368 -0.0030694 0.11433 -0.047232 -0.12864 -0.08638 0.089019 0.015668 -0.050975 0.0018236 0.15292 -0.10682 0.055508 0.10173 0.066163 0.20094 0.061212 -0.074529 -0.12068 0.063392 0.19291 0.11376 -0.22851 -0.055808 -0.14405 -0.036581 -0.08827 0.24095 -0.17408 -0.065173 0.048744 -0.11315 0.030921 0.11145 -0.055372 0.24236 -0.15227 -0.018293 -0.029868 0.016798 0.19856 0.15404 -0.017685 0.19436 0.12316 -0.051114 0.13325 0.1094 0.088549 0.0053115 -0.046655 0.022958 -0.17598 0.084299 0.026544 -0.028279 
48896700 0.21272 -0.085304 -0.085556 0.0708 0.20242 0.081607 0.085231 0.13045 -0.093153 -0.069373 0.059237 -0.061314 0.081657 -0.17853 0.0087944 -0.067711 -0.13214 0.14305 -0.045582 -0.0095874 -0.0414 0.047286 0.067298 0.10308 -0.037721 0.039675 -0.016546 -0.12397 0.018971 0.014405 0.022028 0.20409 0.015003 -0.044614 0.03926 -0.17336 -0.019827 -0.22632 -0.02242 -0.013457 0.075143 0.032425 0.0044692 0.06511 0.0032127 0.11775 0.16657 -0.046361 -0.15555 -0.056593 -0.024528 0.065269 -0.058815 0.021025 0.21591 -0.13322 0.061535 -0.068232 -0.088096 0.049937 -0.11614 -0.12072 -0.099902 -0.067167 0.25587 -0.047871 0.0013706 -0.18737 -0.067066 0.05784 -0.093299 0.26159 -0.27255 0.015221 0.035434 -0.006857 0.083303 0.071233 0.082886 0.08011 -0.15245 -0.17318 -0.023457 0.03041 0.10141 0.19372 -0.068666 0.25178 -0.092154 -0.026991 0.14043 0.002178 -0.063996 0.098989 -0.0048075 -0.27495 -0.070804 -0.038811 -0.07902 0.033503 
41535498 0.22793 0.1325 -0.0099554 0.024575 0.15899 0.06492 0.053406 0.027819 0.1662 -0.029918 0.092527 0.16269 0.013745 -0.088606 -0.040983 -0.16265 -0.079378 0.11366 0.093332 -0.19549 -0.1884 0.0040514 0.053884 0.034229 -0.11893 0.072451 0.075101 -0.044797 -0.1005 0.1754 -0.0043644 0.011652 0.034718 0.02011 -0.02022 -0.084969 0.022094 0.064434 -0.1401 0.034718 -0.2072 -0.013423 0.0048051 -0.031378 0.14644 -0.072416 -0.0019723 0.10444 -0.10192 -0.14013 0.031901 -0.096893 -0.10513 -0.029418 0.045066 -0.12874 0.046815 -0.0596 0.0012893 -0.025629 0.08366 0.1049 -0.072288 0.18988 0.061841 -0.072928 0.05944 -0.12715 -0.081686 0.018667 -0.058025 0.16243 -0.03346 -0.094393 0.10388 -0.071458 -0.22473 0.047874 -0.027594 -0.12181 -0.16106 -0.080297 0.11154 0.024894 -0.029073 0.030603 0.082587 0.027063 -0.10226 0.11901 0.12319 -0.090812 0.06896 -0.1336 -0.11658 -0.021254 -0.024771 -0.055214 -0.042117 0.099159 
53723756 0.04404 0.013935 0.047285 0.16963 -0.025076 0.14357 -0.031147 0.073553 -0.0044924 -0.021628 -0.086132 0.0066423 -0.092082 -0.012679 -0.024375 -0.048481 -0.042949 0.071064 -0.024458 0.11299 0.14766 -0.16736 0.026542 0.062779 -0.084251 0.16987 -0.0069817 -0.048331 -0.098179 0.13727 0.17938 0.075408 -0.040007 -0.0062865 0.080332 -0.15115 0.058286 0.008086 -0.084315 -0.022445 0.16779 0.029608 0.073093 -0.024133 0.026065 0.11509 0.12502 -0.070468 -0.1139 -0.099832 -0.041347 0.061831 -0.061513 -0.038798 0.081068 -0.2062 0.085021 0.087461 0.074467 0.10978 0.035493 -0.020811 -0.029582 0.019388 0.17555 0.099427 -0.078796 -0.07336 -0.16134 -0.036804 -0.12071 0.19403 -0.082525 -0.048817 0.022688 -0.088251 -0.089092 0.02094 -0.060215 0.20995 -0.11622 0.15924 0.047499 -0.093822 0.1755 0.096453 -0.059107 0.12491 -0.012079 0.036642 0.11362 -0.035539 0.080178 -0.10663 -0.031955 -0.069268 -0.15042 0.25276 0.096162 0.083699 
48896715 0.16253 0.010203 -0.13229 0.052737 0.10454 0.020437 0.11907 0.017119 -0.12357 -0.10394 0.041796 -0.051679 0.059446 -0.10374 0.034025 0.078713 -0.085217 0.18429 -0.13961 -0.010292 -0.09859 -0.020586 0.11469 0.055801 -0.05382 0.074166 -0.074871 -0.057565 0.021413 0.023863 0.030323 0.090404 -0.025973 -0.036358 0.043227 -0.11389 -0.11585 -0.12315 -0.10473 0.040567 0.13605 0.037648 0.10102 -0.014734 -0.0066814 0.17167 0.10175 -0.040316 -0.086978 -0.035931 -0.037409 0.074062 -0.033527 0.032343 0.21602 -0.18653 0.066412 -0.058463 -0.091916 0.023847 -0.025916 -0.042535 -0.12753 -0.052881 0.2421 -0.066754 0.006235 -0.13587 -0.02258 0.034549 -0.16255 0.37254 -0.21449 -0.015041 0.073545 0.034007 0.096394 -0.022867 0.11045 0.095986 -0.11889 -0.1432 0.014242 0.0024562 0.093265 0.21945 -0.064682 0.20432 -0.074926 -0.045124 0.21196 -0.051467 0.0098298 0.07261 -0.0024274 -0.24394 -0.11841 0.020294 -0.13643 -0.0082645 
32593519 0.11629 0.092567 -0.099069 0.048157 -0.062359 0.098286 -0.023233 0.032638 -0.071371 -0.10057 -0.17074 -0.010257 -0.11024 -0.077687 -0.043204 -0.011938 -0.18999 0.063798 -0.12616 -0.011118 -0.11477 0.012373 0.076104 -0.022722 -0.17043 0.089871 0.048124 0.0586 -0.0069127 0.07944 -0.14292 -0.080928 -0.0014105 -0.092773 -0.041842 -0.016505 -0.04419 -0.075602 -0.097903 -0.034789 0.063064 -0.067843 0.13601 -0.002188 0.063965 0.24075 0.0036423 -0.0068969 -0.097511 -0.083155 -0.014926 0.026077 -0.10582 -0.076316 0.060512 -0.28605 0.043255 -0.035161 -0.0020308 -0.11191 0.024575 -0.085136 -0.12252 -0.17033 0.088555 -0.24883 -0.018187 0.011324 -0.013569 -0.13035 -0.096222 0.29772 -0.086705 -0.025137 -0.059651 -0.022685 0.070861 -0.018124 0.0065357 0.1242 -0.070363 -0.037994 -0.14167 0.21277 0.10592 0.095551 -0.025207 0.18125 -0.16352 -0.14697 0.15059 -0.18862 0.080581 -0.072664 -0.0007166 -0.080168 -0.069411 0.11711 0.00507 0.1447 
46984380 0.13264 0.062011 -0.11979 0.061924 -0.091737 0.12355 -0.20442 0.15071 -0.073472 0.042075 0.0035851 0.01536 -0.22909 -0.020143 -0.16483 0.0067284 -0.04697 0.07316 0.062747 0.17112 0.013008 -0.18371 -0.030469 -0.02826 -0.21827 0.080091 0.033223 0.15858 -0.029469 0.090225 -0.012186 0.098051 0.014849 -0.0051367 0.072594 -0.16932 0.086687 -0.012791 0.02054 -0.058171 -0.056131 -0.12288 0.12879 -0.15551 0.10295 0.1152 -0.019682 -0.12338 -0.010478 -0.12358 0.091534 0.22728 -0.15692 0.049296 -0.0059793 -0.27413 0.028314 0.084283 0.11917 0.051893 0.012773 -0.078087 -0.11271 -0.070992 -0.092974 0.099607 -0.14647 -0.027939 -0.088214 -0.12948 -0.0055023 0.24403 -0.14156 0.086931 -0.046377 -0.068797 0.25907 0.018087 0.089665 -0.11218 -0.087415 -0.18661 -0.11377 0.13395 -0.053033 0.011381 -0.084413 -0.10435 -0.10818 -0.050685 0.13369 -0.024593 0.10103 0.07371 0.01347 -0.014587 -0.080199 0.066483 0.1282 -0.0090678 
32593239 0.17773 0.17426 -0.18353 0.045647 -0.0070102 0.08265 0.10877 0.016107 0.00021632 -0.060253 -0.052228 -0.08248 0.042778 0.05001 0.0078172 0.058032 -0.11032 0.18193 -0.18352 0.0065838 -0.046821 -0.078245 0.097016 0.061865 -0.015403 0.13105 0.012427 -0.14049 0.022607 0.064149 0.0046702 0.042967 0.018472 -0.10554 0.034024 -0.053229 -0.00079565 -0.0096008 -0.13119 0.11714 0.22718 0.033253 0.1033 -0.015984 -0.03496 0.21965 0.010614 -0.069148 -0.097695 -0.068399 -0.07406 0.0064828 -0.070501 0.0059743 0.15445 -0.16089 0.13348 -0.052909 -0.047807 0.039819 -0.050606 -0.060895 -0.12072 -0.059248 0.23729 -0.15755 0.075861 -0.093759 -0.059934 0.082642 -0.17143 0.18149 -0.19122 -0.055936 0.069968 0.06393 0.17079 0.010135 0.075955 0.17291 -0.11695 -0.055548 0.042788 0.070858 0.031518 0.15213 -0.060838 0.27323 -0.046087 -0.10942 0.22505 -0.10779 0.075885 -0.029777 -0.060132 -0.13789 -0.19119 0.12248 -0.13162 0.0071043 
34887057 0.1692 0.067316 -0.12078 0.049109 0.070293 0.0074707 -0.10567 0.074149 -0.093495 -0.16731 0.050872 0.0292 -0.028134 -0.14638 -0.05387 -0.16125 -0.33079 0.072679 0.049332 -0.0044116 -0.091815 -0.026736 -0.055425 0.069281 -0.29471 0.023518 0.021953 -0.023628 -0.027112 0.1898 -0.23671 0.076264 -0.039597 -0.077853 -0.0075546 -0.1546 -0.096601 -0.13185 -0.23239 -0.07355 -0.058007 -0.097035 0.035996 -0.063523 0.012025 0.1118 -0.11795 -0.11164 -0.20506 0.049008 0.048933 0.019467 -0.15701 -0.018179 0.039763 -0.18808 0.16057 -0.080469 0.10223 -0.083441 0.077887 -0.14433 -0.15966 -0.03714 0.11166 -0.14837 -0.086893 -0.10586 0.029413 0.018792 -0.091548 0.33686 -0.016432 -0.025728 0.08242 0.21999 -0.0010661 -0.048066 0.15164 0.045291 -0.1497 -0.14569 -0.13916 0.098792 0.065791 0.079192 -0.071406 0.19069 -0.23378 -0.21471 0.01759 -0.25169 0.0023622 0.011493 0.15624 -0.041207 -0.066674 0.01588 0.028007 -0.031199 
54569796 0.16568 -0.076187 0.14959 0.0075966 -0.10438 0.26764 -0.017666 -0.083677 0.20445 0.0042552 -0.091893 0.098451 -0.075814 0.009038 -0.080883 -0.088533 -0.0062733 -0.094786 0.066773 0.098564 0.209 -0.097104 0.11628 -0.022111 -0.073853 0.063503 0.09949 0.074628 0.097932 0.14865 0.11424 0.083199 0.023615 0.020398 -0.0675 -0.20058 -0.021488 -0.080552 -0.018355 0.069519 0.028683 -0.095529 0.039086 0.12681 0.051404 0.042514 0.17186 0.028842 -0.14986 -0.051185 0.12757 0.057475 -0.10828 -0.079827 0.012591 -0.1998 0.10744 0.12625 0.029457 -0.030801 0.12131 0.014095 -0.22269 -0.17172 0.024437 0.12431 0.01332 -0.12773 -0.19979 -0.2251 -0.10643 0.25814 -0.095068 0.017926 -0.026884 -0.1077 0.065857 0.0054439 0.14203 0.053802 -0.07782 -0.024741 0.038867 0.066552 0.059492 0.11456 0.039556 -0.0036633 -0.0036135 -0.20249 0.10226 -0.04864 -0.038477 -0.098527 0.088287 0.039365 -0.1436 0.08077 0.083175 0.039544 
48093195 0.11774 0.074533 -0.078297 -0.030154 -0.056275 0.039294 -0.087295 0.16095 -0.019546 0.073433 -0.0054583 0.039248 -0.11316 -0.013536 -0.12042 0.062585 0.0075343 0.058876 -0.029897 0.21466 -0.012273 -0.1877 0.036628 -0.015423 -0.13307 0.088633 -0.0219 0.088455 0.0027334 0.0069306 0.098346 0.097962 0.017698 0.037621 0.083602 -0.12124 0.043881 -0.085044 -0.014068 -0.043425 -0.072128 -0.13468 0.084136 -0.13794 0.044013 0.30559 -0.038439 -0.16555 -0.041252 -0.054981 0.027044 0.20897 -0.19046 0.048126 0.075994 -0.29675 0.084528 0.10206 0.1825 0.065149 0.00063905 -0.20349 -0.086119 -0.044391 -0.059898 0.17214 -0.0653 -0.023842 -0.064332 -0.10889 -0.10072 0.25331 -0.10637 0.053054 -0.028792 -0.10626 0.25764 0.039942 0.016222 -0.049243 -0.069028 -0.17197 -0.12789 0.13491 -0.066588 0.061032 -0.061293 -0.020664 -0.020584 -0.14622 0.19882 -0.03432 0.11283 0.07005 0.013382 -0.091913 -0.012697 0.0076903 0.14768 0.045337 
33428164 0.059883 -0.096076 0.0013515 0.19477 0.076457 0.12483 -0.036263 0.11161 -0.088501 -0.038803 -0.050486 -0.052181 -0.10663 -0.11078 -0.0433 -0.21908 -0.15057 -0.033597 -0.064434 -0.026606 -0.001898 -0.061861 0.011513 -0.030176 -0.072625 0.12322 0.11564 0.044066 -0.046834 0.072327 -0.17044 0.05082 -0.06958 -0.042945 -0.06409 -0.06815 0.042818 -0.2811 0.02533 -0.028222 0.077702 -0.034926 0.020214 0.069447 0.086012 0.15061 0.17847 0.03289 -0.22652 -0.068469 0.075996 -0.031723 -0.16442 -0.20264 0.14431 -0.21702 0.18749 0.059664 0.089571 -0.0050889 0.013537 -0.061642 -0.087659 -0.24432 0.10873 -0.02297 -0.068326 -0.043753 -0.086908 -0.029027 0.06186 0.38409 -0.16545 0.061619 -0.070393 -0.1043 0.10191 0.031731 0.010271 0.0070951 -0.013678 -0.011221 -0.057661 0.13501 0.13858 0.090536 -0.070987 0.13405 -0.23691 -0.13628 0.16426 -0.13597 0.19228 -0.019995 0.014988 -0.15156 -0.078184 -0.060594 0.11511 0.13032 
33427312 0.088362 0.058808 -0.12618 0.0886 0.078959 0.1324 -0.078125 -0.041454 -0.073117 -0.031584 -0.027994 0.054159 -0.13045 -0.10953 0.0037412 -0.16582 -0.10206 0.086447 -0.10387 -0.085331 -0.10322 -0.012529 -0.019805 -0.051181 -0.081882 0.040386 0.12539 -0.011389 -0.03645 0.064908 -0.033136 -0.023364 -0.046582 -0.065441 -0.047067 -0.093685 0.026106 -0.18267 -0.18055 -0.052788 0.18081 0.020321 0.035623 -0.092113 0.10595 0.087472 0.18451 0.037939 -0.19097 -0.087745 -0.011099 -0.11684 -0.051167 -0.075674 0.17678 -0.1831 0.12369 -0.080526 0.096659 -0.074956 0.03731 -0.058413 -0.12721 -0.14838 0.10971 -0.098173 -0.11256 -0.080907 -0.056088 -0.043731 0.036408 0.37758 -0.13941 -0.0029379 -0.050303 -0.072407 0.063693 0.03087 0.019362 0.092816 -0.059984 -0.11625 0.027214 -0.0081449 0.18989 -0.030417 -0.048003 0.095934 -0.11825 -0.093162 0.19414 -0.1813 0.18823 0.0099979 -0.041828 -0.070353 -0.1222 -0.11442 0.14339 0.095439 
46863816 0.023133 0.11553 0.098609 0.082598 0.1426 0.1318 0.049724 0.11857 -0.013255 0.020925 -0.1221 0.27479 0.11986 0.059446 -0.046131 -0.08863 0.058977 -0.050429 0.22313 0.022657 0.10477 -0.0059943 0.0823 -0.083063 -0.12012 0.026963 0.11437 0.040426 0.00051698 -0.049125 -0.074545 -0.097771 0.032713 -0.015731 -0.0039661 -0.041838 -0.16097 -0.046965 -0.025673 -0.017991 -0.11006 -0.1079 0.12933 -0.030048 0.013264 0.099099 -0.077062 -0.059875 -0.095322 0.04952 -0.046494 0.11299 -0.054178 -0.1423 0.041184 -0.24785 0.12515 0.062625 0.14037 0.080069 -0.14662 -0.11429 0.019901 -0.14305 -0.1022 0.058675 0.035523 -0.070645 -0.018713 0.14973 -0.097912 0.24353 -0.01995 -0.024307 0.059402 -0.040624 -0.017945 -0.026912 0.10899 -0.090966 -0.0038287 0.077329 -0.048521 0.21469 0.011971 0.092689 -0.028567 -0.088392 -0.0076689 -0.068781 0.15516 -0.035068 0.19988 -0.12314 0.052572 -0.045041 -0.023511 0.13347 -0.085694 -0.011404 
39583701 0.07644 0.041825 -0.18923 0.047432 0.20117 0.020461 -0.00022467 -0.054576 -0.12137 -0.074268 -0.078758 -0.036794 -0.11188 -0.092869 -0.022955 0.026852 -0.19007 0.095224 -0.080948 0.018757 -0.042145 -0.04052 0.24722 0.046622 -0.096223 0.11938 -0.018959 -0.21363 -0.061772 0.091518 -0.073479 0.066977 -0.015153 0.010178 -0.017802 -0.032568 0.013589 -0.071138 -0.10869 -0.042727 0.14035 -0.097756 0.071207 0.083236 0.077493 0.28856 0.037654 -0.01135 -0.082451 0.021717 0.042297 -0.044336 -0.078191 -0.067819 0.16147 -0.25265 0.071836 0.085625 0.0077921 -0.038473 -0.037101 -0.079625 0.013522 -0.04659 0.19786 0.01204 0.028855 -0.048842 0.076865 -0.071561 -0.10361 0.36736 -0.12198 0.073673 -0.034022 0.13727 0.11876 -0.030576 -0.025352 -0.00518 -0.16744 -0.014771 0.015306 -0.094313 0.033223 0.052606 -0.1191 0.18731 -0.14987 -0.021523 0.093114 -0.1485 0.07378 -0.068912 -0.090105 -0.17115 -0.20057 0.063024 0.013134 -0.0055688 
47043711 0.2249 -0.1155 0.038719 0.070672 0.034996 0.043341 -0.052567 0.092231 -0.092574 0.076409 -0.043671 -0.053021 0.025366 -0.13963 -0.12085 -0.14707 -0.24894 0.088278 0.015662 -0.051403 -0.091652 -0.0075269 -0.020115 -0.0017336 -0.27952 0.3093 0.015314 0.014632 0.080624 0.15994 -0.14403 -0.082118 0.026382 -0.029728 0.033208 -0.10565 0.05069 -0.18259 -0.10423 0.002506 -0.059595 -0.11925 0.072686 -0.15067 0.023144 0.037824 -0.12213 -0.074501 -0.21848 -0.0087667 0.23088 0.13195 -0.18805 -0.19102 -0.061443 -0.26062 0.050537 0.13414 0.048667 0.010849 0.051039 -0.12365 -0.14469 -0.14104 0.013275 0.04072 -0.12565 -0.11389 -0.12575 0.09258 -0.16889 0.3442 -0.0035496 0.057467 0.054786 0.036036 0.082364 0.034317 0.15022 0.11343 -0.19371 -0.018326 -0.11599 0.11619 0.044596 0.085685 -0.054933 0.058198 -0.035729 -0.069803 0.10246 -0.13582 0.066287 0.067331 0.077761 -0.060437 -3.5774e-05 0.23994 0.15387 0.011822 
47016448 0.10303 -0.1377 0.074151 0.091884 -0.088483 0.24631 -0.070539 0.14942 -0.055585 0.079316 -0.17906 0.062338 -0.14066 0.017888 -0.092548 -0.086335 -0.15565 -0.024543 -0.0096283 -0.0057368 0.071582 -0.17947 -0.024282 0.11213 -0.072765 0.20239 0.032803 -0.032725 -0.077767 0.05651 -0.030506 0.14327 -0.12814 -0.046769 -0.059862 -0.029413 0.043015 -0.16081 -0.0042991 -0.093731 0.0046871 -0.064762 0.0036286 0.055327 0.17702 0.15338 0.2006 0.018869 -0.11533 -0.1283 0.039413 0.077014 -0.047384 -0.19904 0.076589 -0.19514 0.14126 0.022186 0.17975 -0.016182 0.10281 -0.018288 -0.25763 -0.017178 0.099758 0.024026 0.00043263 0.10757 -0.16996 -0.18036 -0.056597 0.27701 -0.015275 0.024804 0.0047768 -0.14631 0.025517 0.28185 -0.060161 -0.031676 -0.10671 0.1475 0.016624 0.19553 0.19786 0.20676 0.017961 0.13283 -0.12665 -0.084562 0.11498 -0.18013 0.1572 -0.066485 0.0058181 0.016356 -0.12609 0.1763 0.13641 0.095084 
35896883 0.1828 -0.035915 0.10101 -0.015069 -0.072253 0.019751 -0.084975 0.051127 -0.029463 0.063912 -0.29359 0.15703 0.048829 0.13617 -0.032304 -0.0021674 -0.18986 -0.076008 -0.016108 0.011643 0.09025 -0.049114 0.22255 0.087791 -0.23523 0.10712 -0.075838 -0.030134 -0.14317 0.049316 -0.051314 -0.056825 0.019366 0.21705 0.053391 -0.065809 -0.092537 -0.014769 -0.23294 0.052139 -0.10722 0.025625 0.024248 -0.05444 0.018856 0.18616 0.02992 0.078726 0.06243 -0.081257 -0.074057 -0.033957 -0.023471 -0.016451 -0.081176 -0.14229 0.078188 0.023697 0.066094 -0.014921 -0.13903 0.0073806 -0.15611 -0.01284 -0.035373 0.031559 0.1004 0.091705 -0.16356 -0.0404 -0.21793 0.17696 0.14019 -0.0065404 0.12444 0.044084 0.192 0.11245 0.064129 -0.094175 -0.16296 0.030424 0.029026 0.17339 0.0027661 0.22375 -0.019725 -0.12179 -0.15993 -0.12956 0.20218 -0.26385 0.20667 -0.0069607 0.018964 -0.020279 0.038073 0.096585 0.043123 0.052213 
27520591 0.15762 -0.061522 -0.0051611 -0.10346 -0.052765 0.0051981 -0.27979 0.083871 -0.010535 -0.093771 0.059451 0.2477 0.077629 -0.022463 -0.027336 -0.08492 -0.15046 -0.031106 -0.073171 -0.14536 0.052685 -0.1535 0.1483 -0.10282 -0.045021 0.067949 0.13816 0.20039 -0.05001 0.032164 -0.015642 -0.066183 0.011872 0.11218 0.027679 -0.20814 0.11166 0.12559 -0.034249 0.077658 -0.15429 -0.13154 0.050384 -0.16365 0.19592 -0.078572 0.014526 0.21349 -0.020042 -0.04287 0.057587 0.085235 -0.016568 -0.072955 0.083406 -0.19764 0.067756 0.068868 0.053217 0.035375 -0.041224 0.010998 0.24248 -0.16077 -0.007311 0.14707 -0.054448 -0.056685 0.12823 0.046557 0.065663 0.0054173 -0.028778 -0.097259 -0.005871 -0.14189 0.29519 0.029036 -0.063318 -0.090632 -0.010352 -0.07418 0.065174 0.12885 0.099378 0.011836 -0.017099 0.0021726 -0.14858 -0.20247 -0.039764 -0.2013 -0.0912 0.061193 -0.0053482 0.079101 -0.12597 0.031695 -0.060991 -0.052162 
47842086 0.1058 -0.013471 -0.07985 0.03238 0.14399 -0.029571 0.12275 0.010363 -0.013674 -0.24084 -0.096722 -0.019772 0.011875 -0.068281 0.013001 -0.032906 -0.23209 0.047749 -0.089696 0.0041307 -0.018623 -0.05026 0.13039 0.025245 -0.18493 0.15353 -0.057307 -0.027187 0.10166 -0.14912 -0.14614 0.019606 0.10884 -0.01403 -0.050283 -0.073435 -0.070216 -0.20272 -0.11451 -0.11717 0.12763 -0.052395 0.22518 -0.081557 0.16057 0.2847 -0.032551 -0.13655 -0.09727 0.027979 -0.09781 -0.019777 -0.03635 -0.056892 -0.02128 -0.23197 0.12078 0.024729 0.1298 0.046356 -0.17229 -0.12523 -0.027394 0.037956 0.20526 -0.042056 0.00778 0.14224 0.041825 -0.006025 -0.17872 0.26574 -0.12448 -0.03226 0.036767 0.058177 0.064229 0.025159 0.042898 0.037517 -0.11147 0.039848 -0.029754 0.10402 0.023697 0.12605 -0.14891 0.27375 -0.14461 -0.11456 0.12968 -0.14636 0.085976 0.023593 0.030216 -0.2153 -0.12637 0.10768 0.00044599 0.073098 
47249898 0.010352 0.026641 -0.043803 0.084376 -0.10918 0.068792 -0.061205 -0.044605 -0.046233 -0.011987 -0.029534 0.041986 -0.12462 -0.046944 0.016538 0.12897 0.0073567 0.1452 -0.099057 0.10048 -0.021227 -0.13321 0.11918 0.081413 -0.062117 0.1579 -0.075819 0.11867 -0.10642 0.029069 0.14183 -0.0014962 0.031555 -0.0027611 -0.064291 -0.069032 -0.040723 -0.084989 -0.09086 -0.15167 0.11974 -0.0017875 0.18622 0.05808 0.06833 0.12799 0.13661 -0.09332 -0.085898 0.0029803 0.043095 0.15822 -0.0064614 0.0018105 0.12013 -0.25215 0.093161 0.078295 0.093627 0.14606 -0.025836 -0.10463 0.020274 0.029384 0.19339 0.14117 -0.0038752 0.047312 0.051946 -0.076866 -0.22836 0.18348 -0.070977 -0.15405 0.042245 -0.11551 0.10445 0.058225 -0.13763 0.065371 -0.20177 0.15449 -0.048397 -0.030227 0.042132 0.23295 -0.032553 0.050376 -0.049958 -0.020081 0.02154 -0.068902 0.049878 -0.057784 -0.05444 -0.0098462 -0.1533 0.26981 0.01032 0.16845 
46875171 0.13713 -0.18299 0.051345 0.0082849 0.015512 0.13186 -0.017264 -0.052799 -0.045116 0.03485 -0.048309 -0.080808 -0.16134 -0.11749 0.012974 -0.047514 -0.14094 0.22098 0.014573 0.0054373 0.067417 -0.055262 -0.03055 -0.060039 -0.24299 0.17417 0.11749 0.0058282 0.10907 0.064726 0.039577 -0.0057875 -0.032278 0.051844 0.0052937 -0.2833 -0.044319 -0.10296 0.039399 0.11753 -0.031036 -0.13305 0.20153 -0.063311 0.055053 0.026269 0.1901 -0.060018 -0.1828 0.042863 0.26197 0.1355 -0.13315 -0.046816 0.0079807 -0.27143 0.11052 0.11093 0.1721 0.063808 0.088559 0.017499 -0.11813 -0.13798 0.088066 0.15049 0.019343 -0.11426 -0.15204 0.0022079 -0.17653 0.25892 -0.10898 0.014152 0.01416 -0.10011 0.056843 0.058446 0.029202 0.057428 -0.14638 0.0087003 -0.048387 0.044681 0.15623 0.19318 -0.049271 0.05728 -0.063484 -0.14263 -0.016104 -0.11729 -0.0024491 -0.10214 0.072381 0.042712 0.013524 0.18253 0.13231 0.062215 
41621000 0.10942 0.0093315 0.072431 0.025962 0.023995 0.12028 -0.11012 0.13156 -0.061943 0.033005 -0.10894 0.016325 -0.20248 -0.087937 -0.043499 -0.10767 -0.21285 0.0066311 0.081371 0.024355 -0.0049558 -0.18764 -0.06142 0.099951 -0.052874 0.10806 0.13443 -0.066671 -0.012648 0.12518 0.090339 0.05627 0.073677 -0.011056 -0.029828 -0.16902 0.12318 -0.097146 -0.02446 -0.097417 0.076049 -0.098211 -0.038834 -0.025041 0.1091 0.10228 0.095982 -0.032615 -0.1597 -0.075748 0.076652 0.096015 -0.10455 -0.034461 0.020563 -0.27561 0.13567 -0.0037992 0.14331 0.03909 0.10862 -0.05251 -0.17209 -0.13301 0.1473 -0.084971 -0.19133 0.08848 -0.15357 -0.031207 0.02652 0.25357 -0.14125 0.066875 -0.0050449 -0.11429 -0.018089 0.15361 0.032783 -0.015375 -0.10848 0.084571 -0.034026 0.13993 0.20594 0.16182 -0.028458 0.060178 -0.10606 -0.011683 0.06814 -0.16284 0.0050439 -0.1568 0.073507 -0.015993 -0.043406 0.065035 0.24311 0.022003 
47249894 0.16634 -0.13233 0.0064357 0.036067 -0.17789 0.15224 -0.23323 -0.095024 -0.010043 -0.074885 -0.026606 0.036387 -0.054237 -0.17238 0.063982 0.059777 -0.03519 -0.020027 -0.17942 0.050777 0.072072 -0.20601 -0.073841 0.054676 -0.11304 0.18487 -0.044102 0.11591 -0.018486 0.078062 0.20315 0.16358 -0.0094343 -0.1326 -0.14541 -0.23827 0.080863 -0.10352 -0.12636 -0.048914 -0.11855 -0.068379 0.10806 0.045567 0.061777 -0.017062 0.043757 0.071928 -0.176 -0.087463 0.088885 0.0072412 0.01499 -0.14212 0.0083968 -0.1793 0.041375 0.14761 0.15055 0.31153 -0.088104 0.15465 0.081066 -0.0087089 0.13988 0.16885 -0.24568 -0.10992 -0.04239 -0.040068 -0.045939 0.074742 -0.1131 -0.040192 0.051966 -0.15232 0.047648 -0.061843 -0.11301 0.079069 -0.23107 0.036526 -0.054223 -0.070031 0.06059 0.24708 0.015602 -0.02275 0.039011 -0.088468 -0.012304 -0.10739 -0.049962 -0.0233 -0.13002 -0.0052316 -0.10375 0.21161 0.084194 0.21138 
54499191 0.13053 0.19969 -0.11733 -0.012267 0.040101 0.10826 -0.013213 0.21925 0.059146 -0.019364 -0.035695 -0.010515 -0.10296 -0.017674 -0.026868 0.056173 0.077113 0.18697 -0.056342 0.14946 0.028583 -0.10116 -0.0048366 0.069107 -0.10888 0.04083 0.020801 0.031932 -0.012181 0.058907 0.12509 0.20617 -0.011198 0.038398 0.16791 -0.092744 0.056083 -0.10114 -0.0079054 0.014042 0.078393 -0.0026832 0.10697 -0.15699 0.070547 0.16628 -0.018229 -0.13411 0.021903 -0.072129 -0.047783 0.20801 -0.19234 0.11954 0.1119 -0.10941 -0.017825 0.16069 0.10196 0.19085 0.044922 -0.13442 -0.0090446 0.11662 0.13338 0.1217 -0.08713 -0.12034 -0.15064 -0.071033 -0.1003 0.13525 -0.15621 0.021042 -0.080461 0.027575 0.19662 0.0036972 0.01812 0.040726 -0.014729 -0.11949 -0.050203 0.033405 0.0025955 0.043131 -0.1132 0.068697 0.075789 -0.019953 0.22329 0.095416 0.057674 0.030249 -0.065402 -0.12609 -0.18287 0.0059515 -0.0062889 -0.024019 
